<?xml version="1.0"?>
<opencv_storage>
<opencv_ml_svm>
  <format>3</format>
  <svmType>C_SVC</svmType>
  <kernel>
    <type>RBF</type>
    <gamma>3.3750000000000002e-02</gamma></kernel>
  <C>2.5000000000000000e+00</C>
  <term_criteria><epsilon>9.9999999999999995e-07</epsilon>
    <iterations>3000</iterations></term_criteria>
  <var_count>576</var_count>
  <class_count>2</class_count>
  <class_labels type_id="opencv-matrix">
    <rows>2</rows>
    <cols>1</cols>
    <dt>i</dt>
    <data>
      0 1</data></class_labels>
  <sv_total>169</sv_total>
  <support_vectors>
    <_>
      6.07360005e-02 2.21054271e-01 1.66777879e-01 1.26868933e-01
      2.69097239e-01 2.23565757e-01 1.67830303e-01 4.78149839e-02
      4.88158502e-02 1.44190371e-01 3.30775976e-01 2.40469635e-01
      4.26482297e-02 1.45242482e-01 1.24649264e-01 8.15386921e-02
      1.97071116e-02 4.06370685e-02 1.21659033e-01 3.30775976e-01
      3.30775976e-01 1.23306401e-01 7.05139637e-02 2.24849917e-02
      2.04798337e-02 1.03292866e-02 4.04912382e-02 1.49363562e-01
      3.30775976e-01 3.30775976e-01 9.17066261e-02 4.25187200e-02
      1.41716860e-02 2.37516724e-02 6.79231109e-03 3.45188640e-02
      2.35075295e-01 2.86518693e-01 2.48725325e-01 5.90351969e-03
      1.11110490e-02 1.67605411e-02 1.32847968e-02 2.16921754e-02
      1.70074284e-01 2.37395138e-01 1.82115316e-01 7.68316463e-02
      3.25736478e-02 7.14449435e-02 7.39809498e-02 1.08116038e-01
      2.59751856e-01 2.86518693e-01 1.73287079e-01 2.86518693e-01
      2.86518693e-01 5.03089726e-02 1.86551064e-02 1.83922593e-02
      1.40221594e-02 2.32638773e-02 6.93259984e-02 1.82210878e-01
      2.86518693e-01 2.60857940e-01 1.67811379e-01 1.74235702e-01
      9.97123793e-02 8.09766501e-02 1.21920750e-01 1.52942300e-01
      4.51364070e-02 4.20441478e-03 5.30557847e-03 3.50546986e-02
      1.77583233e-01 2.39182442e-01 2.26652071e-01 2.58252650e-01
      2.58252650e-01 6.27031028e-02 1.32988557e-01 2.92266514e-02
      6.29016105e-03 1.37602702e-01 2.58252650e-01 1.58585042e-01
      1.16094187e-01 4.63326536e-02 5.92588447e-02 2.52990216e-01
      1.89382181e-01 2.02746302e-01 2.58252650e-01 2.58252650e-01
      1.32650658e-01 1.11177713e-01 6.57314509e-02 1.09396532e-01
      2.58252650e-01 2.58252650e-01 3.92819531e-02 1.94491610e-01
      2.58252650e-01 6.58099875e-02 5.70094623e-02 2.31005512e-02
      2.09572837e-01 2.44646937e-01 4.65868637e-02 1.54781051e-03
      2.56833471e-02 8.32852796e-02 3.62135470e-02 2.83924155e-02
      1.64700449e-01 2.97371417e-01 1.19268321e-01 2.42437683e-02
      2.10816157e-03 2.77664745e-03 3.78335384e-03 6.24177791e-03
      4.70438302e-02 3.32977563e-01 2.61403948e-01 3.32977563e-01
      2.07805112e-01 8.91636650e-04 1.31329922e-02 4.51039635e-02
      1.19707184e-02 2.96985954e-02 2.00090691e-01 3.22466761e-01
      3.32977563e-01 4.59379070e-02 3.31977792e-02 3.19973007e-02
      3.89060862e-02 4.97376211e-02 1.94621861e-01 3.32977563e-01
      9.91659164e-02 2.92011708e-01 2.92011708e-01 9.77082625e-02
      9.85663831e-02 1.11638688e-01 5.13650291e-02 1.46053759e-02
      1.81490835e-02 1.24403439e-01 2.92011708e-01 2.92011708e-01
      2.02231675e-01 7.13340938e-02 3.67947333e-02 3.68630700e-02
      8.59344471e-03 1.96815338e-02 3.36094797e-02 1.04347885e-01
      1.65518612e-01 8.02358612e-02 2.13117376e-01 2.92011708e-01
      2.92011708e-01 4.49489728e-02 1.24193011e-02 4.90990542e-02
      6.69543520e-02 1.48374081e-01 2.40954056e-01 2.28846744e-01
      2.92011708e-01 2.34146208e-01 5.55467494e-02 1.07420534e-02
      9.89568308e-02 2.76813567e-01 2.76813567e-01 2.21516714e-01
      6.62754774e-02 2.72984430e-02 1.49942916e-02 1.11013846e-02
      1.88712031e-02 1.26065388e-01 2.76813567e-01 2.76813567e-01
      1.95914671e-01 7.87399411e-02 2.88803987e-02 9.15292464e-03
      1.87995620e-02 2.24047657e-02 2.06873212e-02 8.27755779e-02
      2.41398707e-01 2.76813567e-01 1.99805766e-01 2.76813567e-01
      1.03780121e-01 1.97088830e-02 1.01872105e-02 5.00632338e-02
      2.76813567e-01 2.76813567e-01 2.76813567e-01 1.08337589e-01
      1.99366510e-01 9.27172080e-02 2.38005482e-02 2.75392532e-02
      7.33463913e-02 3.20124328e-01 3.20124328e-01 1.23525538e-01
      9.97892320e-02 6.03282899e-02 1.46887079e-02 1.77825149e-02
      1.71824619e-02 9.63749513e-02 3.20124328e-01 3.20124328e-01
      2.72114296e-02 4.48435657e-02 5.47778420e-02 1.59559567e-02
      2.37056743e-02 1.93791613e-02 7.51531050e-02 3.20124328e-01
      3.20124328e-01 2.22966611e-01 5.42566963e-02 1.00130245e-01
      6.16073124e-02 1.22028980e-02 1.95982940e-02 1.20693035e-01
      3.20124328e-01 3.20124328e-01 1.57893181e-01 8.44841823e-02
      6.83478490e-02 2.57065315e-02 1.94768813e-02 2.57494077e-02
      1.32506743e-01 3.16603303e-01 2.91537941e-01 8.84975214e-03
      2.14011432e-03 7.89167453e-03 3.89640126e-03 1.99163835e-02
      7.10738301e-02 1.55536264e-01 3.16603303e-01 1.43008783e-01
      1.37164742e-01 7.39298388e-02 5.32137379e-02 4.73112948e-02
      1.18523084e-01 2.93555677e-01 6.43573776e-02 3.16603303e-01
      3.16603303e-01 1.77907839e-01 9.95435864e-02 2.61804163e-02
      4.60031070e-03 1.63751245e-02 1.71081703e-02 1.30921394e-01
      3.16603303e-01 3.16603303e-01 2.03256235e-01 7.53573999e-02
      1.78899318e-02 6.86083641e-03 2.31470354e-02 3.20860744e-02
      9.42744035e-03 8.56477395e-03 8.29165988e-03 2.96701454e-02
      1.00574858e-01 3.25521260e-01 3.25521260e-01 1.59614757e-01
      1.71029232e-02 5.13108866e-03 2.81485985e-03 7.41162570e-03
      5.23488261e-02 9.80463624e-02 3.25521260e-01 3.25521260e-01
      1.46211073e-01 4.94125858e-03 3.13888155e-02 9.49518755e-02
      9.43775401e-02 4.31354232e-02 4.49526049e-02 2.18569368e-01
      3.25521260e-01 2.28960469e-01 7.44794309e-02 7.67249148e-03
      1.26704648e-02 6.71626767e-03 1.91047098e-02 2.96796151e-02
      3.25521260e-01 3.25521260e-01 2.30341449e-01 3.25289220e-02
      6.46155607e-03 8.19764100e-03 2.15381905e-02 8.07762668e-02
      1.36439979e-01 3.00150454e-01 2.55965114e-01 4.04308848e-02
      8.63171183e-03 2.26993319e-02 4.55553643e-02 1.50466725e-01
      1.66616514e-01 1.67344362e-01 3.00150454e-01 2.64420688e-01
      2.00718660e-02 2.33723074e-02 1.72894280e-02 2.13863719e-02
      2.66275685e-02 9.89433005e-02 2.43738815e-01 3.00150454e-01
      3.00150454e-01 1.38121247e-01 3.95508595e-02 2.62585878e-02
      3.08458414e-02 3.95091772e-02 2.07152098e-01 3.00150454e-01
      3.00150454e-01 2.67120183e-01 4.50087637e-02 2.92644333e-02
      3.02098058e-02 7.37666190e-02 2.20849559e-01 1.73873827e-01
      1.21444643e-01 2.99255341e-01 2.50906944e-01 1.19547201e-02
      1.33179585e-02 4.80661355e-02 8.64016116e-02 1.43835679e-01
      1.98004410e-01 2.20996797e-01 2.99255341e-01 1.07474200e-01
      2.33163275e-02 1.63832549e-02 1.60674322e-02 1.74247697e-02
      1.71598326e-02 7.98522308e-02 1.74377710e-01 2.99255341e-01
      2.99255341e-01 1.48422554e-01 1.89765003e-02 6.37783669e-03
      1.99782243e-03 1.29492311e-02 7.89862871e-02 2.01789886e-01
      2.99255341e-01 2.99255341e-01 2.40919843e-01 1.37220947e-02
      1.90664660e-02 1.39488876e-01 2.17846960e-01 2.58961141e-01
      2.79810041e-01 2.87956089e-01 2.45893076e-02 1.06418142e-02
      8.63158330e-03 7.43051097e-02 2.87956089e-01 2.87956089e-01
      1.90100133e-01 1.65505871e-01 2.32875273e-01 2.22418047e-02
      1.45203974e-02 2.66429950e-02 5.12887957e-03 5.06326184e-03
      2.63223592e-02 1.24272063e-01 2.87956089e-01 2.87956089e-01
      1.69273093e-01 6.49743602e-02 1.13029741e-02 2.06054542e-02
      2.22469587e-02 6.96916357e-02 1.07353702e-01 2.87956089e-01
      2.87956089e-01 1.06425941e-01 1.58027951e-02 2.23688427e-02
      5.97192496e-02 1.24035820e-01 1.08562194e-01 1.99601408e-02
      9.83801484e-03 2.28868619e-01 3.51061642e-01 1.37281731e-01
      9.08233821e-02 2.30620764e-02 1.31792855e-02 7.74119841e-03
      1.21995630e-02 1.13769956e-02 3.51061642e-01 3.51061642e-01
      3.51061642e-01 7.64651075e-02 3.78707461e-02 2.65417006e-02
      1.94738153e-02 9.25835688e-03 1.50202094e-02 1.04549527e-01
      1.91202596e-01 9.09978673e-02 7.20489472e-02 4.21284847e-02
      1.06546609e-02 5.07018203e-03 5.39503573e-03 1.43123185e-02
      1.60400540e-01 3.51061642e-01 3.51061642e-01 2.18544289e-01
      6.77264184e-02 5.97665645e-02 7.93301538e-02 1.47799715e-01
      1.43184572e-01 1.83016464e-01 2.52577066e-01 2.52577066e-01
      1.07440501e-01 7.87928104e-02 1.08110048e-01 1.95396096e-01
      2.52577066e-01 2.52577066e-01 1.51127249e-01 1.00956418e-01
      1.19480118e-01 7.02562109e-02 1.99305385e-01 1.28919765e-01
      8.09577852e-02 6.21371418e-02 1.49504133e-02 2.65891943e-02
      1.97518229e-01 2.52577066e-01 2.52577066e-01 2.52577066e-01
      2.52577066e-01 2.52577066e-01 2.37565443e-01 3.41255814e-02
      1.41216256e-03 3.13733742e-02 1.39011070e-01 1.68964103e-01
      3.34566087e-02 4.15853150e-02 7.32439309e-02 1.47912443e-01
      8.60293210e-02 2.08687037e-01 3.05347949e-01 2.59582072e-01
      3.28193270e-02 2.39551980e-02 1.32682845e-02 2.71874629e-02
      3.84604782e-02 6.36152774e-02 3.05347949e-01 3.05347949e-01
      3.05347949e-01 4.23919074e-02 7.61988908e-02 1.12896442e-01
      1.09897271e-01 9.95348692e-02 1.20150857e-02 4.37780619e-02
      3.05347949e-01 1.86091691e-01 3.70600969e-02 6.32948279e-02
      1.71930138e-02 1.76035967e-02 9.35452711e-03 1.47562642e-02
      2.48944670e-01 3.05347949e-01 3.05347949e-01 2.01198757e-01
      3.91056314e-02 2.88772397e-02 5.52082472e-02 9.38106626e-02
      2.53011584e-01 2.55830467e-01 2.55830467e-01 1.21325009e-01
      6.05125986e-02 3.07805389e-02 1.83378942e-02 5.21856658e-02
      1.30890653e-01 2.55830467e-01 2.55830467e-01 9.39561650e-02
      3.43563855e-02 4.54169139e-02 1.67246193e-01 7.34550804e-02
      9.49277878e-02 6.14627711e-02 9.98598412e-02 2.02359825e-01
      2.55830467e-01 2.55830467e-01 2.55830467e-01 1.34620681e-01
      1.20671831e-01 2.55830467e-01 2.55830467e-01 2.55830467e-01
      1.65798232e-01 5.91822304e-02 1.36456773e-01 1.83736578e-01</_>
    <_>
      3.28716151e-02 1.12988725e-02 7.79418051e-02 1.87719792e-01
      2.94289142e-01 1.75446212e-01 2.94289142e-01 2.61776239e-01
      3.02935261e-02 2.21539196e-02 6.49874657e-03 1.11414781e-02
      1.53454430e-02 7.63606504e-02 2.70619899e-01 2.94289142e-01
      2.94289142e-01 8.98853410e-03 9.95307565e-02 2.00229324e-02
      2.50257794e-02 8.51348862e-02 2.94289142e-01 2.94289142e-01
      1.07576989e-01 6.69573620e-02 9.00400579e-02 9.39836800e-02
      2.73999721e-02 2.11928189e-02 4.20513228e-02 1.12633884e-01
      2.79462993e-01 2.94289142e-01 1.35253832e-01 6.93095550e-02
      6.48425892e-03 7.22544938e-02 9.37815085e-02 1.46317426e-02
      3.75334099e-02 1.94108769e-01 2.84630924e-01 2.60467023e-01
      5.78024574e-02 2.64635030e-02 2.84630924e-01 2.84630924e-01
      2.84630924e-01 3.17140892e-02 2.45350096e-02 2.24768966e-01
      1.41015440e-01 7.27699101e-02 6.25242069e-02 1.03169769e-01
      5.40347025e-02 1.59846991e-02 5.26124947e-02 2.09066480e-01
      2.84630924e-01 1.69020265e-01 1.41322747e-01 9.55631286e-02
      2.84630924e-01 2.84630924e-01 2.44220361e-01 3.85090187e-02
      2.86710840e-02 1.14077449e-01 1.03021726e-01 1.41584679e-01
      2.35426143e-01 2.70175904e-01 2.70175904e-01 2.70175904e-01
      7.84758180e-02 1.39811356e-02 1.78787299e-03 1.50756761e-02
      5.55106848e-02 2.70175904e-01 2.06668705e-01 1.21927917e-01
      1.78834364e-01 1.76087826e-01 9.26570222e-02 3.34970467e-02
      3.92556638e-02 2.70175904e-01 4.70041670e-02 1.68493956e-01
      2.70175904e-01 2.70175904e-01 1.46395460e-01 4.82503958e-02
      7.53818685e-03 1.14357695e-02 3.66974175e-02 1.23653784e-01
      2.38248274e-01 1.88764408e-01 1.75326854e-01 2.32670024e-01
      1.61496058e-01 2.12035980e-02 3.48605849e-02 1.15019158e-01
      2.43936092e-01 1.17070839e-01 5.30794971e-02 6.40852675e-02
      1.68101057e-01 7.35701621e-02 3.16605233e-02 5.97635135e-02
      2.43936092e-01 1.35633901e-01 6.13747090e-02 5.42013608e-02
      1.75462425e-01 2.43936092e-01 2.24970073e-01 2.03192800e-01
      2.08608121e-01 1.99616343e-01 2.41371289e-01 2.18348399e-01
      1.24371968e-01 1.01317413e-01 1.79774091e-01 8.91055167e-02
      2.30882093e-02 5.31591326e-02 1.88183501e-01 2.43936092e-01
      2.43936092e-01 2.43936092e-01 2.43936092e-01 2.43936092e-01
      7.82951787e-02 2.12768000e-02 3.63252498e-02 1.13558158e-01
      7.52279833e-02 6.36222139e-02 1.07260555e-01 2.61148810e-01
      2.61148810e-01 1.72593951e-01 3.22789252e-02 2.44713333e-02
      7.75930732e-02 1.24386132e-01 1.03833869e-01 9.38828364e-02
      9.34717134e-02 7.33643696e-02 1.09294437e-01 1.17895372e-01
      1.04913332e-01 1.62010565e-01 4.85002249e-02 1.45287171e-01
      2.61148810e-01 2.61148810e-01 2.18567505e-01 9.48415250e-02
      1.44893020e-01 8.08332339e-02 1.58782393e-01 8.32560956e-02
      2.61148810e-01 2.61148810e-01 2.61148810e-01 1.17260173e-01
      1.77238852e-01 2.31833696e-01 2.37441659e-01 2.32086524e-01
      1.39149398e-01 1.69486344e-01 6.22555912e-02 5.47990613e-02
      5.78079596e-02 1.07613467e-01 1.35172382e-01 1.56731576e-01
      2.12575883e-01 2.35003412e-01 2.38347813e-01 2.31270581e-01
      9.88188609e-02 5.08119166e-02 4.64507341e-02 5.82722276e-02
      8.02029818e-02 1.42785475e-01 7.36382529e-02 1.75647303e-01
      1.54340386e-01 2.14732841e-01 2.38347813e-01 2.38347813e-01
      2.38347813e-01 1.84209704e-01 1.51470199e-01 1.74509615e-01
      2.38347813e-01 1.53151616e-01 1.99629173e-01 2.22795650e-01
      2.38347813e-01 1.66159958e-01 7.47457519e-02 7.57325366e-02
      8.10732618e-02 1.83401242e-01 1.66198939e-01 1.38382077e-01
      1.10021114e-01 7.53888339e-02 4.17153798e-02 2.17779502e-02
      3.54696810e-02 1.99053943e-01 2.81716913e-01 2.81716913e-01
      2.81716913e-01 1.62491351e-01 8.65186155e-02 1.96696650e-02
      2.21581552e-02 1.28395811e-01 6.49844930e-02 8.45659748e-02
      6.98139966e-02 1.18752241e-01 2.08977133e-01 2.81716913e-01
      1.54305935e-01 5.45876548e-02 3.47830355e-02 1.08489655e-01
      1.38783798e-01 2.72888243e-01 2.81716913e-01 2.81716913e-01
      2.81716913e-01 1.60956711e-01 6.91849142e-02 6.56007156e-02
      2.71821022e-01 2.71821022e-01 1.63093656e-01 1.09246299e-01
      5.14719635e-02 1.71287246e-02 8.01942497e-03 2.54830495e-02
      1.94483310e-01 2.71821022e-01 2.71821022e-01 2.27327228e-01
      1.29513726e-01 3.42728235e-02 1.73369318e-03 4.47721826e-03
      1.80999972e-02 1.24379024e-01 2.71821022e-01 1.68926165e-01
      1.24963142e-01 1.80146515e-01 2.20228925e-01 1.52556315e-01
      5.69378398e-02 9.52656344e-02 1.96926937e-01 2.71821022e-01
      2.71821022e-01 3.78946289e-02 3.49814519e-02 4.49762382e-02
      1.85092948e-02 1.14983320e-01 1.92710072e-01 2.44449556e-01
      2.64458135e-02 5.60766496e-02 1.63644329e-01 3.14660847e-01
      1.68951333e-01 6.08077757e-02 7.62730464e-02 3.69489454e-02
      7.57277831e-02 1.50899766e-02 1.14372924e-01 2.47325584e-01
      3.14660847e-01 2.06771910e-01 2.09925160e-01 2.13503823e-01
      1.29173875e-01 6.09743185e-02 2.20644381e-02 2.17470471e-02
      1.15523435e-01 3.14660847e-01 3.14660847e-01 5.41812144e-02
      1.46122091e-02 7.61374086e-03 1.08044287e-02 2.85362732e-03
      1.72247477e-02 1.58722714e-01 3.14660847e-01 3.14660847e-01
      2.00268134e-01 1.16096400e-01 5.47440685e-02 2.17033760e-03
      1.07353916e-02 5.41674457e-02 7.19074532e-02 1.78373560e-01
      2.92957902e-01 2.92957902e-01 2.71433055e-01 9.04211104e-02
      4.48365696e-02 7.84256756e-02 9.75240469e-02 5.46788909e-02
      1.02724485e-01 2.25363225e-01 2.92957902e-01 1.47639349e-01
      6.30526841e-02 8.79925638e-02 4.93075466e-03 1.66816022e-02
      5.16660810e-02 2.92957902e-01 2.92957902e-01 2.92957902e-01
      1.39127314e-01 3.57798636e-02 1.62977800e-02 5.53222783e-02
      5.50877750e-02 3.39409560e-02 1.62159085e-01 2.92957902e-01
      2.73852915e-01 1.23794906e-01 6.95134029e-02 7.95312524e-02
      6.65713772e-02 5.68419695e-02 2.64348108e-02 6.05524965e-02
      1.64550185e-01 2.83290088e-01 2.25693032e-01 1.07832514e-01
      8.06753188e-02 1.29334182e-01 1.81109160e-02 3.01661603e-02
      1.29421398e-01 2.83290088e-01 2.83290088e-01 2.83290088e-01
      2.83290088e-01 2.06622303e-01 8.10538903e-02 5.18025160e-02
      3.67834568e-02 5.32074384e-02 8.58000666e-02 1.55347466e-01
      1.73210397e-01 1.16429329e-01 1.05181560e-01 1.65770844e-01
      7.15890676e-02 3.95114496e-02 4.90417592e-02 6.52928278e-02
      1.86624706e-01 2.83290088e-01 2.83290088e-01 2.73118794e-01
      2.32314348e-01 1.99944340e-02 1.47209438e-02 4.51311916e-02
      1.37411818e-01 2.04423457e-01 1.72541380e-01 2.56859601e-01
      2.67309457e-01 1.78357497e-01 3.53372283e-02 2.20816955e-03
      1.31795555e-02 2.16051582e-02 1.67158231e-01 2.67309457e-01
      2.67309457e-01 2.67309457e-01 1.78585172e-01 2.10535396e-02
      6.38966449e-03 4.89159068e-03 2.16398370e-02 1.66201621e-01
      1.82151616e-01 2.31205419e-01 2.67309457e-01 1.01425312e-01
      7.99980829e-04 1.28561907e-04 9.96019953e-05 3.45461518e-02
      2.67309457e-01 2.67309457e-01 1.97802171e-01 1.57242522e-01
      3.41371447e-02 2.11394913e-02 5.08417115e-02 2.13256046e-01
      3.21498483e-01 1.37433916e-01 2.43774876e-02 1.95253249e-02
      2.71011908e-02 1.21171157e-04 4.70183138e-03 5.77901341e-02
      3.21498483e-01 3.21498483e-01 2.71003515e-01 3.90921421e-02
      4.21581678e-02 1.76006899e-04 2.32645832e-02 6.46617683e-03
      1.18271811e-02 2.17384379e-02 3.21498483e-01 3.21498483e-01
      1.72149405e-01 6.67751133e-02 4.19057608e-02 1.83474403e-02
      2.17100233e-02 2.53870655e-02 1.15635522e-01 3.21498483e-01
      3.21498483e-01 2.27850214e-01 1.37044668e-01 1.75571237e-02
      4.78817243e-03 4.12153779e-03 2.56181378e-02 2.86027670e-01
      2.86027670e-01 2.86027670e-01 8.76843035e-02 3.92796770e-02
      1.78627893e-02 8.75134096e-02 8.40759799e-02 2.65324879e-02
      1.00534014e-01 2.86027670e-01 2.07049519e-01 1.10818155e-01
      7.94083923e-02 9.76563320e-02 3.64112407e-02 2.40668319e-02
      1.91509183e-02 9.62293297e-02 2.86027670e-01 2.86027670e-01
      2.46145591e-01 1.01138256e-01 6.16698042e-02 2.42969558e-01
      2.85587609e-01 1.05089732e-01 2.57797968e-02 1.23167440e-01
      2.33165681e-01 2.00174615e-01 1.20283552e-01 1.92260534e-01
      1.45871609e-01 1.47829160e-01 5.28474934e-02 5.10916188e-02
      7.57241473e-02 7.77369291e-02 1.01776846e-01 1.70429230e-01
      1.17368728e-01 1.29199952e-01 1.35513648e-01 6.68158755e-02
      6.71893582e-02 4.25085947e-02 5.72421588e-02 2.18392417e-01
      2.99175024e-01 1.40151978e-01 2.99175024e-01 2.99175024e-01
      1.74121529e-01 4.42024805e-02 5.15464433e-02 4.64439876e-02
      2.34050289e-01 2.99175024e-01 1.90346003e-01 1.51685894e-01
      1.35812148e-01 5.06955720e-02 3.10518369e-02 6.44958466e-02
      1.74076706e-01 2.99175024e-01 2.99175024e-01 1.49931803e-01
      1.19861364e-01 7.45892897e-02 6.21032640e-02 5.77282831e-02
      3.66589911e-02 1.60536125e-01 2.37363741e-01 1.82065338e-01
      1.47089973e-01 5.39612100e-02 1.42315980e-02 1.18164741e-01
      1.87711433e-01 1.57115504e-01 2.97798067e-01 2.97798067e-01
      1.01052664e-01 6.49450123e-02 1.86292440e-01 1.28447980e-01
      2.05508500e-01 1.18437305e-01 4.85038944e-02 1.08600184e-01
      2.97798067e-01 2.05440626e-01 9.24620256e-02 1.37528971e-01
      1.05582893e-01 2.97798067e-01 2.97798067e-01 1.93228900e-01
      1.63061574e-01 1.60683662e-01 4.36720960e-02 5.23108840e-02</_>
    <_>
      1.73829973e-01 2.27738082e-01 2.55837202e-01 2.54770488e-01
      1.64711684e-01 7.57644400e-02 2.12135240e-02 2.99189445e-02
      1.76065356e-01 2.55837202e-01 2.55837202e-01 1.49503008e-01
      3.49480845e-02 3.35363895e-02 2.39785053e-02 3.07759214e-02
      6.23986237e-02 2.55837202e-01 2.55837202e-01 2.55837202e-01
      2.55837202e-01 2.10601151e-01 5.73839247e-03 9.74121562e-04
      2.01960583e-03 2.99237110e-02 1.92480043e-01 2.55837202e-01
      2.55837202e-01 2.39039123e-01 3.56048569e-02 1.27688460e-02
      4.27456154e-03 1.33812279e-02 1.96005385e-02 1.56734809e-01
      2.89388448e-01 2.10232750e-01 6.12299517e-02 1.16633661e-02
      2.58470383e-02 3.47574763e-02 7.29397982e-02 2.19788015e-01
      2.89388448e-01 2.89388448e-01 1.10319749e-01 2.29406427e-03
      1.48859050e-03 2.23080441e-02 6.29993230e-02 2.13206530e-01
      2.89388448e-01 2.89388448e-01 2.10795626e-01 2.61353433e-01
      1.40093401e-01 3.00591998e-02 2.95050982e-02 5.77284209e-02
      8.70872959e-02 8.35864097e-02 1.52027056e-01 9.70496908e-02
      4.19592634e-02 2.03968026e-02 1.22773917e-02 2.38265842e-02
      1.32470191e-01 2.89388448e-01 2.89388448e-01 2.00455442e-01
      2.59726644e-01 1.36640757e-01 2.60569081e-02 2.90789939e-02
      3.21713574e-02 5.16329519e-02 2.21926108e-01 1.91208735e-01
      2.59726644e-01 2.59726644e-01 2.59726644e-01 1.80890918e-01
      1.43257275e-01 7.94213787e-02 5.33705540e-02 9.19730887e-02
      1.26191586e-01 2.59726644e-01 3.52356844e-02 2.37408746e-02
      2.94157118e-02 3.87151465e-02 6.15011491e-02 1.00236230e-01
      2.59726644e-01 2.59726644e-01 7.77240619e-02 1.84161484e-01
      1.72982678e-01 1.55161276e-01 2.01520920e-01 2.55328298e-01
      1.17525086e-01 1.78840786e-01 2.19649449e-01 1.30030945e-01
      2.25203961e-01 3.19132179e-01 1.69916958e-01 5.83307371e-02
      3.32001373e-02 3.09673771e-02 4.00690995e-02 5.31264171e-02
      1.55883923e-01 3.19132179e-01 2.37159133e-01 1.26930043e-01
      2.84667928e-02 1.13985380e-02 1.15893036e-02 4.26316075e-02
      5.58309481e-02 3.19132179e-01 3.19132179e-01 1.64207041e-01
      1.08876057e-01 7.20541477e-02 8.83896649e-02 4.09861878e-02
      4.36804444e-02 7.89058879e-02 3.19132179e-01 3.19132179e-01
      1.42083123e-01 4.71727178e-02 1.26437740e-02 2.08875071e-02
      1.73268765e-02 3.98115702e-02 7.22383186e-02 3.19132179e-01
      1.84718519e-01 1.75620541e-01 2.85560548e-01 1.73509657e-01
      5.13182692e-02 2.57210396e-02 1.91649236e-02 4.08701450e-02
      1.35251626e-01 2.25295454e-01 2.85560548e-01 2.85560548e-01
      1.09905116e-01 3.52729969e-02 1.67378057e-02 2.15873979e-02
      1.96051393e-02 1.22676946e-01 7.68135712e-02 9.46738869e-02
      2.22519547e-01 1.52525157e-01 1.48856282e-01 8.01822171e-02
      4.99401838e-02 1.35190040e-01 2.85560548e-01 8.03115517e-02
      2.85560548e-01 2.85560548e-01 2.31301993e-01 2.59010375e-01
      1.50544271e-01 6.23561293e-02 5.45094013e-02 1.23938851e-01
      2.03150257e-01 2.49609232e-01 2.49609232e-01 4.67415154e-02
      4.39936370e-02 3.69249880e-02 4.76813763e-02 8.97247195e-02
      1.71950549e-01 1.66106820e-01 9.93490294e-02 4.95007969e-02
      2.99852192e-02 4.79116142e-02 6.78909197e-02 1.38226360e-01
      2.35138401e-01 2.49609232e-01 1.16090462e-01 2.49609232e-01
      2.49609232e-01 2.34167606e-01 2.49609232e-01 1.12094037e-01
      6.80594668e-02 1.00442737e-01 1.11107156e-01 1.53016612e-01
      2.02385649e-01 1.75145641e-01 2.49609232e-01 2.49609232e-01
      7.21865594e-02 5.39219901e-02 1.42250285e-01 2.42825657e-01
      9.86281857e-02 6.56730607e-02 4.97557931e-02 6.23433366e-02
      1.26482010e-01 9.43029970e-02 1.75810382e-01 2.27502674e-01
      1.70806319e-01 1.07056402e-01 1.44297183e-01 1.25658408e-01
      2.53052115e-01 2.65506715e-01 2.00016171e-01 1.79127648e-01
      2.06598148e-01 7.53798932e-02 1.83443740e-01 1.87809005e-01
      1.06672704e-01 1.44600824e-01 1.23120561e-01 5.68333380e-02
      9.80330035e-02 1.49058849e-01 2.33629838e-01 6.36393428e-02
      4.17767800e-02 3.33529487e-02 1.06785454e-01 2.65506715e-01
      1.75648421e-01 2.65506715e-01 2.65506715e-01 2.65506715e-01
      2.40061596e-01 1.44076377e-01 8.09763595e-02 9.29788873e-02
      2.04911277e-01 7.06101879e-02 5.92721477e-02 1.27416804e-01
      2.42852032e-01 3.00929606e-01 1.46841645e-01 1.98117252e-02
      1.43754156e-02 5.95071875e-02 4.53788862e-02 9.33538303e-02
      1.45945713e-01 3.00929606e-01 8.51537362e-02 1.31106498e-02
      1.52897192e-02 3.36831920e-02 1.14540853e-01 6.92862123e-02
      1.11531310e-01 3.00929606e-01 3.00929606e-01 1.83703095e-01
      2.17980500e-02 4.99434723e-03 6.33179676e-03 3.00875138e-02
      1.08041078e-01 3.00929606e-01 3.00929606e-01 3.00929606e-01
      6.51909187e-02 3.32022570e-02 8.69515687e-02 8.24064091e-02
      2.48887643e-01 1.89943656e-01 8.53529349e-02 1.38356522e-01
      2.48887643e-01 4.46271300e-02 9.08243880e-02 2.48887643e-01
      1.45137697e-01 2.48887643e-01 2.48887643e-01 1.85307384e-01
      1.85631737e-01 9.49773863e-02 3.69683616e-02 3.25766206e-02
      9.27595273e-02 2.46915340e-01 2.48887643e-01 1.59054220e-01
      1.49545163e-01 1.57794416e-01 1.43491298e-01 9.35958326e-02
      3.32497209e-02 6.34436309e-02 1.81435853e-01 2.48887643e-01
      2.43779883e-01 1.52353525e-01 2.48887643e-01 1.26561195e-01
      8.03050622e-02 8.71357843e-02 2.65441120e-01 2.65441120e-01
      2.65441120e-01 1.50035560e-01 1.18982270e-01 1.51845038e-01
      6.47080317e-02 8.65331665e-02 1.48778632e-01 2.65441120e-01
      2.65441120e-01 2.61164755e-01 2.87241675e-02 2.54246034e-02
      4.05267477e-02 5.02348617e-02 1.56772271e-01 7.73527101e-02
      2.46114969e-01 2.39620760e-01 1.22637965e-01 7.51645267e-02
      8.34456980e-02 2.44741514e-01 1.46298543e-01 8.51645172e-02
      1.07015863e-01 2.65441120e-01 2.65441120e-01 2.02100560e-01
      2.99987067e-02 4.07506116e-02 3.76121663e-02 4.10157703e-02
      1.76989824e-01 2.80252069e-01 2.67310411e-01 2.80252069e-01
      1.11296579e-01 3.65408659e-02 1.15852088e-01 1.78419322e-01
      1.83078766e-01 9.07299668e-02 8.98783132e-02 3.43258493e-02
      4.59937267e-02 3.54406163e-02 5.96708208e-02 2.77389884e-01
      2.80252069e-01 2.80252069e-01 1.01371087e-01 2.05797777e-01
      2.27889344e-01 2.80252069e-01 1.61137119e-01 3.30371261e-02
      7.38046467e-02 5.88574335e-02 6.32874593e-02 1.20224833e-01
      2.19372332e-01 1.49292663e-01 1.10602401e-01 5.54659665e-02
      2.87729707e-02 8.17574263e-02 1.35356292e-01 1.93151578e-01
      8.23065266e-02 7.14610331e-03 6.97362190e-03 8.21350142e-03
      1.54385027e-02 2.15213131e-02 7.06751496e-02 2.88895100e-01
      2.88895100e-01 1.39693365e-01 4.94959718e-03 1.44066559e-02
      3.16229649e-02 1.30791038e-01 2.88895100e-01 2.88895100e-01
      2.88895100e-01 2.88895100e-01 4.51667570e-02 1.17310360e-01
      1.78323030e-01 4.29252647e-02 3.18864211e-02 1.51776168e-02
      2.54034419e-02 7.63394237e-02 1.71677426e-01 3.20047885e-02
      1.08682238e-01 2.88895100e-01 2.88895100e-01 2.72452980e-01
      2.67018646e-01 1.05018049e-01 6.31161779e-02 1.37567386e-01
      5.88602237e-02 5.19562513e-02 8.54337290e-02 1.84154302e-01
      1.11990228e-01 6.64808825e-02 3.04782301e-01 3.13948452e-01
      1.43660575e-01 1.77232608e-01 6.30008057e-02 5.44051826e-02
      1.27464846e-01 9.42984670e-02 5.32138944e-02 5.96532598e-02
      1.59522161e-01 1.30613118e-01 7.78356344e-02 1.61894485e-02
      1.22975176e-02 1.97588541e-02 1.00480057e-01 2.37360433e-01
      3.13948452e-01 3.13948452e-01 1.86126649e-01 3.02805066e-01
      6.80467784e-02 2.64293961e-02 1.90091599e-02 5.76045550e-02
      1.46502957e-01 2.99585760e-01 1.39962614e-01 2.67361104e-01
      1.84898451e-01 1.33664668e-01 1.20057359e-01 8.24366584e-02
      5.76879643e-02 2.01759879e-02 2.50507500e-02 9.89311785e-02
      1.15780488e-01 1.72137737e-01 2.65179515e-01 1.98419705e-01
      2.06552118e-01 1.26136884e-01 2.16071885e-02 2.86898129e-02
      1.78602003e-02 3.31133567e-02 3.40980619e-01 3.60036820e-01
      1.27193213e-01 2.16622744e-02 3.27958725e-02 2.06624214e-02
      2.75374744e-02 3.46667878e-02 1.70042530e-01 3.60036820e-01
      3.60036820e-01 3.60036820e-01 6.13632426e-02 7.37941712e-02
      4.01052414e-03 5.90317976e-03 6.51511317e-03 4.33606394e-02
      2.28720784e-01 9.67969671e-02 5.08176610e-02 6.59324825e-02
      3.74083593e-02 5.78441005e-03 1.19127398e-02 8.89287610e-03
      6.25901669e-02 4.01609659e-01 9.01261792e-02 4.46817204e-02
      1.83612481e-02 1.14154052e-02 6.26009190e-03 1.17929960e-02
      1.84266809e-02 1.63944423e-01 4.05630797e-01 4.05630797e-01
      1.77474007e-01 2.09081750e-02 3.05885579e-02 7.48293707e-04
      9.49657755e-04 1.49233767e-03 1.36449933e-01 4.05630797e-01
      1.11922458e-01 1.32297240e-02 1.43091101e-03 9.88930091e-03
      1.03621988e-03 1.69214234e-03 6.98344596e-03 4.05630797e-01
      2.60891259e-01 1.88556477e-01 1.81905493e-01 1.71056539e-02
      7.20900716e-03 2.58219265e-03 5.23538701e-03 8.83994251e-03
      1.00747533e-01 1.27638921e-01 2.73125648e-01 3.37642699e-01
      1.73765808e-01 4.83804196e-02 1.39479376e-02 2.05539330e-03
      2.53092987e-03 2.47583147e-02 3.37642699e-01 1.88669831e-01
      7.19544962e-02 1.81306782e-03 4.10239166e-03 2.89295247e-04
      6.66382606e-04 6.22147275e-03 3.37642699e-01 3.37642699e-01
      3.37642699e-01 1.85373530e-01 2.64364369e-02 5.39949397e-03 0.
      5.94540370e-06 2.37609213e-03 2.81294018e-01</_>
    <_>
      1.93193126e-02 9.36190486e-02 1.90398157e-01 2.27491155e-01
      1.63247108e-01 8.54041353e-02 6.74418807e-02 2.45587409e-01
      9.81446803e-02 2.89006233e-02 3.19032930e-02 8.90932605e-02
      1.62925139e-01 2.66287953e-01 1.55861720e-01 7.34440386e-02
      1.50443971e-01 6.23331703e-02 2.13330407e-02 7.56752267e-02
      1.73760206e-01 2.66287953e-01 2.24710196e-01 2.66287953e-01
      1.17334440e-01 2.29043931e-01 6.47309348e-02 6.10518046e-02
      6.71639815e-02 2.66287953e-01 2.66287953e-01 2.66287953e-01
      2.29369536e-01 1.52539611e-01 1.77047402e-01 3.18257213e-02
      6.40403554e-02 7.02115223e-02 1.50534347e-01 1.30678684e-01
      2.43164927e-01 1.33874178e-01 8.78817439e-02 3.28004211e-02
      4.00482565e-02 1.03709847e-01 9.84618813e-02 1.44101769e-01
      1.70833439e-01 2.43164927e-01 2.43164927e-01 1.21583492e-01
      6.50077313e-02 1.23351298e-01 1.19457543e-01 1.00736633e-01
      2.43164927e-01 2.43164927e-01 2.43164927e-01 1.81814685e-01
      2.43164927e-01 1.58322096e-01 6.06551319e-02 1.65406644e-01
      1.32144555e-01 9.56756324e-02 1.35896385e-01 2.08001256e-01
      1.50443539e-01 2.43164927e-01 2.43164927e-01 2.43164927e-01
      4.52910066e-02 1.03538014e-01 9.61378515e-02 1.43301800e-01
      2.30563641e-01 2.40404531e-01 5.68065420e-02 4.69470695e-02
      4.26243544e-02 2.25326829e-02 3.06107253e-01 3.35851163e-01
      2.57229388e-01 7.92061165e-02 6.26934096e-02 1.65316053e-02
      1.84674542e-02 1.06934933e-02 9.91155207e-02 3.35851163e-01
      1.99665278e-01 1.48320496e-01 1.01634987e-01 4.09309268e-02
      7.15750307e-02 1.75926700e-01 1.42022744e-01 5.36745042e-02
      3.35851163e-01 3.35851163e-01 2.58309662e-01 3.40979882e-02
      1.00364592e-02 1.18193952e-02 3.74138691e-02 3.24751437e-02
      1.33039558e-03 2.38921300e-01 3.34306300e-01 2.13864177e-01
      7.19858184e-02 0. 0. 0. 6.31608942e-04 3.60715389e-03
      1.33753866e-01 3.34306300e-01 3.34306300e-01 2.88772017e-01 0. 0.
      0. 3.60715389e-03 3.27159953e-03 3.34306300e-01 3.34306300e-01
      1.09606922e-01 1.45545239e-02 2.98786000e-03 2.46747368e-04
      8.24588351e-05 9.58908859e-05 6.64969767e-03 2.47243658e-01
      3.34306300e-01 2.05225617e-01 3.45665514e-02 4.18045418e-03
      1.91914616e-04 6.41346560e-05 5.99377230e-03 1.84030738e-02
      4.08612937e-02 1.19357638e-01 2.20115289e-01 1.89550593e-01
      1.61113501e-01 7.13690817e-02 6.16148263e-02 7.56638050e-02
      1.83145311e-02 4.65311259e-02 3.02789539e-01 3.02789539e-01
      3.02789539e-01 1.67210236e-01 6.12899065e-02 4.28868271e-02
      1.18356468e-02 2.90129241e-02 1.85762830e-02 7.16316625e-02
      1.75095394e-01 3.02789539e-01 2.15329796e-01 6.29988089e-02
      6.59795403e-02 1.89744502e-01 2.94144712e-02 2.07262430e-02
      1.91416472e-01 3.02789539e-01 3.02789539e-01 3.02789539e-01
      9.31431130e-02 5.39107919e-02 2.48118602e-02 3.69690135e-02
      4.48543727e-02 2.19559029e-01 2.76251286e-01 2.76251286e-01
      1.38500735e-01 1.39164090e-01 5.91659099e-02 1.73298009e-02
      6.59976453e-02 7.54088089e-02 8.93492997e-02 1.54803097e-01
      2.67161399e-01 1.06764980e-01 1.62276238e-01 1.48466587e-01
      9.50265899e-02 5.94342127e-02 5.55561632e-02 2.58062750e-01
      2.76251286e-01 2.76251286e-01 2.13098124e-01 5.67883439e-02
      3.73388678e-02 2.88648182e-03 9.31696817e-02 1.80494979e-01
      2.55709946e-01 2.76251286e-01 2.76251286e-01 4.93163690e-02
      6.88028038e-02 1.38057262e-01 8.43844563e-02 5.44265881e-02
      1.77934349e-01 1.83961198e-01 1.71479777e-01 3.32455821e-02
      7.95442387e-02 1.13983765e-01 1.50650874e-01 7.20038041e-02
      5.95794842e-02 2.87196189e-01 2.87196189e-01 2.87196189e-01
      2.59073079e-02 1.20726429e-01 1.33464426e-01 1.24306872e-01
      3.64042446e-02 4.95040640e-02 7.41443560e-02 8.66453424e-02
      1.19012713e-01 2.36717332e-02 8.74913335e-02 2.48061568e-01
      2.87196189e-01 1.20957933e-01 2.00445816e-01 4.93744947e-02
      8.28818455e-02 1.98512107e-01 2.15760730e-02 1.53490156e-01
      2.87196189e-01 2.87196189e-01 2.75248438e-01 8.86416957e-02
      2.80848861e-01 2.80848861e-01 1.56438321e-01 4.61616665e-02
      5.70010729e-02 7.40412474e-02 8.26651230e-02 3.91323790e-02
      5.68620563e-02 1.27760857e-01 2.80848861e-01 1.59385264e-01
      9.66694057e-02 8.04651454e-02 1.62787706e-01 7.64898583e-02
      3.06862108e-02 2.80848861e-01 8.97883996e-02 4.94300127e-02
      7.68902376e-02 3.33784819e-02 1.59197792e-01 2.57503122e-01
      2.80848861e-01 2.57724404e-01 2.07988113e-01 4.91401814e-02
      3.50564048e-02 6.44272268e-02 9.06590521e-02 2.80848861e-01
      2.80848861e-01 2.33218998e-01 1.00811176e-01 4.95916344e-02
      1.07075483e-01 1.67360082e-01 2.56883919e-01 2.78414965e-01
      1.19004823e-01 2.87806466e-02 2.55867150e-02 6.87685683e-02
      5.08572161e-02 6.56573027e-02 2.10362822e-01 2.78414965e-01
      2.78414965e-01 2.78414965e-01 1.22584105e-01 8.79325122e-02
      1.20893521e-02 1.34110630e-01 2.78414965e-01 2.78414965e-01
      2.14749649e-01 5.96988983e-02 1.39899887e-02 8.86135362e-03
      3.49752721e-03 9.10395943e-03 5.63534535e-02 2.52556533e-01
      2.78414965e-01 2.78414965e-01 1.24507651e-01 1.01169787e-01
      9.93871242e-02 6.30108863e-02 1.27890976e-02 8.57370123e-02
      8.78797770e-02 2.60445088e-01 2.60445088e-01 2.60445088e-01
      1.92298919e-01 1.70344293e-01 1.18489571e-01 1.53583577e-02
      1.19080290e-01 1.62702531e-01 2.50675857e-01 2.60445088e-01
      1.38283446e-01 4.64329980e-02 1.39759213e-01 2.03303054e-01
      1.57585323e-01 5.10368384e-02 1.11112379e-01 1.83728769e-01
      1.19960308e-01 1.02310441e-01 1.91984877e-01 2.60445088e-01
      2.03151405e-01 2.89961491e-02 4.64653783e-02 3.78100835e-02
      6.20477758e-02 4.98276278e-02 8.44995826e-02 1.80365786e-01
      2.60445088e-01 2.60445088e-01 1.20978177e-01 9.48057920e-02
      7.42307454e-02 3.99293192e-02 2.29418539e-02 1.16256634e-02
      1.98610872e-02 1.79210797e-01 3.09285313e-01 2.95819014e-01
      2.42228597e-01 2.73322240e-02 4.38408344e-04 7.14079593e-04
      3.21919052e-03 4.05986570e-02 2.37276271e-01 3.09285313e-01
      3.09285313e-01 4.41754907e-02 1.30838398e-02 7.11890170e-03
      3.51569871e-03 1.93054825e-02 6.78461865e-02 3.09285313e-01
      3.09285313e-01 1.70593426e-01 7.61557221e-02 1.22181317e-02
      1.48963593e-02 2.40306351e-02 1.58592369e-02 5.28209060e-02
      1.97592154e-01 3.09285313e-01 2.89333165e-01 2.49554858e-01
      4.37235050e-02 3.39789345e-04 7.86210236e-04 5.33315875e-02
      2.30213389e-01 1.50349304e-01 2.34801844e-01 3.05610061e-01
      1.14779666e-01 2.32545659e-02 1.65736579e-04 4.61810094e-04
      2.32420772e-01 3.63025635e-01 2.96471417e-01 9.76560861e-02
      7.51952901e-02 4.23266850e-02 8.07918794e-03 2.03726068e-02
      6.33608475e-02 1.93508685e-01 2.37766325e-01 6.93914145e-02
      7.65788779e-02 1.17990397e-01 2.11312622e-02 1.55877275e-03
      1.43356230e-02 6.28948212e-02 3.63025635e-01 3.63025635e-01
      8.72519985e-02 3.00530158e-02 3.20909023e-02 1.45717561e-01
      2.60454953e-01 2.60454953e-01 1.04291335e-01 4.22228351e-02
      4.83563021e-02 1.15024805e-01 6.09172843e-02 5.67553341e-02
      7.52205402e-02 2.60454953e-01 2.60454953e-01 1.87009797e-01
      5.53446151e-02 1.10447317e-01 1.97484538e-01 1.05032928e-01
      6.23456948e-02 1.71924323e-01 1.94850624e-01 1.80986717e-01
      6.41597137e-02 1.37387604e-01 1.26185492e-01 2.47828454e-01
      1.20078817e-01 1.25503078e-01 1.48434788e-01 2.60454953e-01
      2.60454953e-01 1.31088957e-01 1.46230459e-01 1.88320279e-01
      2.60454953e-01 1.41084313e-01 9.78761092e-02 7.97445253e-02
      1.50382459e-01 1.51722312e-01 7.43636563e-02 7.11313635e-02
      1.51237845e-01 2.50264555e-01 1.38488680e-01 6.70175999e-02
      4.44842279e-02 5.08064851e-02 3.88892144e-02 6.73249662e-02
      1.73187867e-01 2.50264555e-01 2.50264555e-01 2.50264555e-01
      9.03684646e-02 1.26175657e-01 2.46892884e-01 2.43075177e-01
      1.22488543e-01 1.21040992e-01 1.26747072e-01 1.83899611e-01
      1.16233356e-01 1.26287922e-01 2.50264555e-01 2.50264555e-01
      1.93250701e-01 1.36824727e-01 2.14986503e-01 1.14017747e-01
      1.14896752e-01 1.66534707e-01 2.50264555e-01 2.42693219e-02
      3.58358361e-02 2.04078238e-02 1.78296138e-02 5.14862910e-02
      7.97422305e-02 2.94485033e-01 2.94485033e-01 1.01461537e-01
      3.17023136e-02 3.51142399e-02 3.22950222e-02 3.05497292e-02
      1.50465043e-02 2.71593016e-02 2.05112994e-01 2.94485033e-01
      9.57688838e-02 2.46642008e-01 2.94485033e-01 8.97135735e-02
      3.57768685e-02 7.63467774e-02 3.84193696e-02 9.42060649e-02
      2.94485033e-01 2.94485033e-01 1.40682250e-01 1.36426851e-01
      4.93950695e-02 1.35681406e-02 5.82347475e-02 8.64403322e-02
      2.94485033e-01 2.94485033e-01 2.94485033e-01 3.24533768e-02
      5.72350882e-02 1.14501625e-01 2.14923486e-01 2.46255741e-01
      1.28409654e-01 8.98290277e-02 1.82912141e-01 2.71131452e-02
      2.67709736e-02 2.62160357e-02 8.76163840e-02 2.34844998e-01
      2.95233339e-01 2.95233339e-01 1.61906898e-01 5.45651205e-02
      3.54837663e-02 8.89354870e-02 1.74074650e-01 1.74628943e-01
      1.16252907e-01 1.08132243e-01 9.14420933e-02 2.64631301e-01
      2.95233339e-01 8.81162882e-02 5.03447279e-02 1.63597569e-01
      2.72889137e-01 1.80992126e-01 2.04701126e-01 2.68464625e-01
      1.45284623e-01 6.17628507e-02 4.85936217e-02</_>
    <_>
      2.17317253e-01 7.94596598e-02 3.32913105e-03 0. 2.33870056e-02
      4.69706953e-02 2.26138785e-01 2.96810120e-01 2.96810120e-01
      6.60423189e-03 1.36006402e-03 3.66970453e-05 0. 5.82091063e-02
      9.78033915e-02 2.78532296e-01 2.96810120e-01 2.96810120e-01
      1.74368560e-01 2.88135651e-02 1.02277501e-02 5.76883648e-03
      1.54031459e-02 3.77312489e-02 1.55443057e-01 2.12837830e-01
      2.09340706e-01 9.11912601e-03 2.95060733e-03 3.98489684e-02
      6.99057356e-02 1.59539461e-01 2.56839454e-01 2.74750203e-01
      2.51927197e-01 2.51725048e-01 1.47986487e-01 1.50544003e-01
      1.97300669e-02 2.94293929e-02 7.24017695e-02 9.20396820e-02
      1.22836098e-01 3.12357306e-01 3.12357306e-01 3.12357306e-01
      3.12357306e-01 8.66627321e-02 8.77133682e-02 9.29295421e-02
      4.77692969e-02 3.88605557e-02 2.23510638e-01 1.90299213e-01
      4.09449935e-02 6.92924783e-02 7.97432363e-02 1.20202020e-01
      1.92450181e-01 2.76529670e-01 1.54913947e-01 1.49669752e-01
      1.15845285e-01 1.62041232e-01 1.77480966e-01 1.27719507e-01
      2.19589710e-01 2.11898044e-01 1.56333357e-01 1.18919186e-01
      8.69948417e-02 6.50880113e-02 3.96438658e-01 3.19033712e-01
      5.74908890e-02 5.17095812e-02 3.58272791e-02 2.69364957e-02
      3.13197710e-02 3.10716107e-02 1.24811187e-01 3.96438658e-01
      1.64266914e-01 2.87962351e-02 4.23057005e-02 9.34750028e-03
      4.18966934e-02 9.36374962e-02 5.56415692e-02 3.96438658e-01
      1.91647932e-01 1.03230707e-01 8.70968550e-02 9.99860987e-02
      9.87477601e-02 9.36612710e-02 1.12357393e-01 8.49350020e-02
      8.02313611e-02 3.05313438e-01 1.95803896e-01 7.22121000e-02
      6.32963479e-02 4.49055061e-02 1.06552601e-01 1.90503329e-01
      1.27134547e-01 1.93845451e-01 3.20122838e-01 5.68991080e-02
      2.05340199e-02 2.46479176e-02 2.63410043e-02 5.04131168e-02
      8.93333927e-02 1.14332914e-01 3.20122838e-01 3.20122838e-01
      1.55198053e-01 4.06065360e-02 3.17516513e-02 4.27505076e-02
      6.16451129e-02 8.53499398e-02 1.22975275e-01 3.20122838e-01
      2.58658916e-01 3.20122838e-01 1.24336854e-01 5.54659963e-02
      4.26876247e-02 6.57185987e-02 1.06071837e-01 9.10717025e-02
      1.83293730e-01 2.99658298e-01 3.20122838e-01 1.95168912e-01
      6.69050887e-02 5.70509434e-02 6.52965009e-02 5.93361482e-02
      5.11470661e-02 8.86287168e-02 1.60619810e-01 1.10546492e-01
      8.29642788e-02 3.69728617e-02 4.82364111e-02 5.38148768e-02
      1.17425956e-01 1.53663605e-01 1.44968048e-01 9.24394876e-02
      2.45581940e-01 2.58048028e-01 2.58048028e-01 2.41016060e-01
      2.14900389e-01 1.66348189e-01 6.85027987e-02 3.01190335e-02
      1.70264736e-01 2.02340752e-01 1.73363492e-01 1.43446043e-01
      1.87917292e-01 1.65815622e-01 1.18576139e-01 7.19410181e-02
      1.12759940e-01 1.74167573e-01 2.58048028e-01 2.58048028e-01
      2.58048028e-01 2.43493363e-01 1.73085541e-01 7.72137940e-02
      6.70639127e-02 5.29777221e-02 2.82359831e-02 1.97571605e-01
      2.59127915e-01 2.14077130e-01 1.82195485e-01 2.21905589e-01
      1.06373422e-01 2.83951610e-02 2.91401204e-02 2.04522964e-02
      7.97915012e-02 1.35443613e-01 1.64869756e-01 1.81211457e-01
      2.59127915e-01 2.51093209e-01 6.86200112e-02 6.03139959e-02
      1.41710892e-01 2.59127915e-01 2.59127915e-01 1.74514592e-01
      8.71082991e-02 1.15780540e-01 5.94269633e-02 6.96960837e-02
      6.82205260e-02 8.03985894e-02 2.56316215e-01 2.59127915e-01
      2.46337175e-01 1.27632961e-01 2.59127915e-01 1.36754945e-01
      4.67471294e-02 4.81594168e-02 1.77913886e-02 1.81836113e-02
      5.02544120e-02 9.46217477e-02 2.29678705e-01 2.44818896e-01
      1.49803102e-01 7.74865597e-02 7.53354803e-02 1.62475288e-01
      2.50504166e-01 1.44652218e-01 1.91928759e-01 2.50504166e-01
      1.32218897e-01 1.09388418e-01 8.81629214e-02 1.09807134e-01
      1.55265518e-02 7.99156800e-02 2.49906465e-01 1.85343519e-01
      2.50504166e-01 2.50504166e-01 1.13417268e-01 6.48673475e-02
      3.39451805e-02 1.94942094e-02 8.92128050e-02 9.62131619e-02
      1.94204316e-01 2.50504166e-01 2.36278564e-01 2.50504166e-01
      2.50504166e-01 1.81831136e-01 1.45133466e-01 2.93184012e-01
      1.90584809e-01 1.25029236e-01 1.20395683e-01 2.57311016e-02
      5.00466786e-02 3.87536287e-02 4.52624075e-02 2.33181372e-01
      2.93184012e-01 2.34283015e-01 7.54837543e-02 3.17905620e-02
      8.19520187e-03 2.43160482e-02 2.18561050e-02 3.96109149e-02
      1.81929823e-02 1.30331740e-01 1.04060724e-01 1.38601989e-01
      1.91341668e-01 5.91464490e-02 1.97390392e-01 2.93184012e-01
      2.20086157e-01 2.93184012e-01 2.22561389e-01 1.29602507e-01
      9.82873067e-02 4.22445536e-02 5.26417419e-03 1.25507817e-01
      2.93184012e-01 2.93184012e-01 1.67277128e-01 1.44458845e-01
      9.89080220e-02 1.10592470e-01 1.37267068e-01 2.53835768e-01
      1.74849331e-01 5.46155348e-02 1.14570081e-01 1.55564606e-01
      1.92421496e-01 1.72208324e-01 1.51241660e-01 1.53900564e-01
      2.24220783e-01 1.45682409e-01 1.18932985e-01 6.85385391e-02
      2.81402558e-01 2.81402558e-01 8.76701400e-02 6.17058091e-02
      2.03022864e-02 1.06303908e-01 7.12842122e-02 3.45044769e-02
      2.59060472e-01 2.81402558e-01 2.81402558e-01 1.21774212e-01
      6.48270249e-02 4.26177084e-02 1.39687911e-01 1.84525192e-01
      1.54438272e-01 2.38713712e-01 2.14355171e-01 2.46033341e-01
      2.07222566e-01 8.67834836e-02 6.88113123e-02 7.50733539e-02
      6.36139810e-02 8.96202475e-02 7.51067847e-02 1.28758073e-01
      2.46033341e-01 2.46033341e-01 1.53356746e-01 6.89531714e-02
      6.15100227e-02 3.65258195e-02 3.37245613e-02 3.52699682e-02
      2.46033341e-01 2.00157389e-01 1.43901929e-01 7.06849843e-02
      8.61531794e-02 1.55144185e-01 2.46033341e-01 1.84991598e-01
      1.74363852e-01 2.46033341e-01 2.46033341e-01 2.19613761e-01
      6.81610405e-02 8.35479125e-02 1.04481146e-01 2.07921654e-01
      2.46033341e-01 2.46033341e-01 5.38989492e-02 2.16456071e-01
      2.65482098e-01 1.19423173e-01 9.81549844e-02 7.30766207e-02
      8.55924040e-02 1.22432716e-01 5.50431870e-02 4.74551283e-02
      7.15123340e-02 6.79539591e-02 5.35442755e-02 1.37881503e-01
      9.94536951e-02 2.12593570e-01 2.65482098e-01 2.61457503e-01
      2.65482098e-01 2.17409089e-01 1.41100362e-01 3.22371945e-02
      4.17244099e-02 3.37958299e-02 1.07057713e-01 2.65482098e-01
      2.65482098e-01 2.65482098e-01 2.55452842e-01 1.15746640e-01
      2.96698920e-02 3.03783938e-02 1.56389959e-02 9.26863179e-02
      2.65482098e-01 2.65482098e-01 2.35690381e-02 1.25176543e-02
      1.51858944e-02 3.10972668e-02 6.85097277e-02 4.70147729e-02
      2.40973160e-01 3.10406595e-01 3.10406595e-01 3.10406595e-01
      8.59228820e-02 1.09852618e-02 2.87033599e-02 1.94338635e-02
      2.36948840e-02 2.43141934e-01 3.10406595e-01 3.10406595e-01
      9.79683176e-02 6.55591488e-02 3.63787226e-02 1.20482137e-02
      2.26660315e-02 2.50241831e-02 1.46861091e-01 3.10406595e-01
      1.82186127e-01 9.90864262e-02 7.28007853e-02 4.58595939e-02
      6.73513040e-02 7.30708912e-02 6.22232594e-02 2.29642570e-01
      3.08942050e-01 1.81947306e-01 2.65766114e-01 2.47070163e-01
      7.32431784e-02 2.89880484e-02 3.04734390e-02 2.35150177e-02
      1.81272514e-02 4.58848216e-02 1.72755718e-01 2.65766114e-01
      2.47273922e-01 1.49613068e-01 5.19921444e-02 3.12259067e-02
      7.45252594e-02 1.19578421e-01 1.61726609e-01 2.65766114e-01
      2.30704635e-01 1.08774200e-01 7.50321001e-02 1.86441671e-02
      9.91092175e-02 1.00754857e-01 1.33080989e-01 2.05230415e-01
      2.65766114e-01 2.22321898e-01 2.54146695e-01 1.45664781e-01
      6.81566671e-02 8.13710093e-02 1.11408681e-01 1.84981242e-01
      2.56888419e-01 2.65766114e-01 1.70656592e-01 1.37500495e-01
      1.92411348e-01 9.01105553e-02 3.92376408e-02 1.52667746e-01
      2.31275380e-01 1.38797760e-01 1.75073043e-01 2.27495119e-01
      1.35375008e-01 1.45874113e-01 1.11830674e-01 5.17073907e-02
      1.90399766e-01 2.14286909e-01 1.83766335e-01 2.09193096e-01
      1.42006472e-01 2.10442126e-01 2.21387312e-01 1.22160934e-01
      4.88752238e-02 1.15848601e-01 1.84462726e-01 1.81087747e-01
      1.75958052e-01 1.80372715e-01 2.35279709e-01 2.35279709e-01
      2.35279709e-01 7.38103315e-02 1.58119619e-01 1.51807651e-01
      9.79998037e-02 7.93912113e-02 2.49672607e-01 1.53056234e-01
      3.90716083e-02 3.22151184e-02 1.94489602e-02 6.14681542e-02
      6.24693893e-02 1.88528910e-01 2.02177450e-01 2.83978313e-01
      2.36822054e-01 3.13354135e-02 4.68384428e-03 5.23113925e-03
      9.28434357e-03 4.48644944e-02 2.80848473e-01 2.76728421e-01
      2.83978313e-01 2.83978313e-01 2.32127681e-01 7.30734691e-02
      4.08328585e-02 4.89756502e-02 3.41436490e-02 3.19068469e-02
      4.92377020e-02 2.83978313e-01 2.83978313e-01 3.97794321e-02
      2.47880397e-03 1.90910324e-02 4.96505387e-03 1.66969672e-02
      2.35949650e-01 2.83978313e-01 1.10995673e-01 7.06448331e-02
      1.44314123e-02 3.91242746e-03 4.36090818e-03 3.82236089e-03
      6.30230308e-02 3.34072083e-01 3.34072083e-01 1.15370996e-01
      1.68329790e-01 8.71665031e-02 5.40174060e-02 3.73332277e-02
      1.51272621e-02 4.12235633e-02 1.29996240e-01 2.74841547e-01
      1.84391931e-01 1.19007967e-01 5.35158254e-03 2.45909934e-04
      1.27343340e-02 0. 2.32923031e-02 3.34072083e-01 3.34072083e-01
      2.82221586e-01 1.57549694e-01 6.23030849e-02 7.23419618e-03
      1.39835300e-02 0. 8.93650297e-03 3.34072083e-01 3.34072083e-01</_>
    <_>
      2.88132936e-01 2.88132936e-01 2.26126239e-01 1.08232990e-01
      1.53332263e-01 2.76785642e-02 3.12836729e-02 3.14186104e-02
      6.36013299e-02 2.88132936e-01 2.88132936e-01 8.93973932e-02
      1.17800295e-01 6.29377887e-02 3.19557339e-02 6.62897155e-02
      8.85074511e-02 1.37374252e-01 2.88132936e-01 2.88132936e-01
      1.02397054e-01 1.00180343e-01 5.51481545e-02 1.68825258e-02
      2.94184759e-02 6.76593781e-02 1.35899588e-01 2.88132936e-01
      2.10796893e-01 2.55801618e-01 2.88132936e-01 1.17679738e-01
      3.26520316e-02 4.46357913e-02 5.11229187e-02 6.87027052e-02
      2.05003798e-01 1.43605515e-01 9.95752215e-02 1.65024608e-01
      1.46295309e-01 6.75410479e-02 7.68371671e-02 2.33869061e-01
      2.27458894e-01 2.02266142e-01 2.35884503e-01 9.92771685e-02
      9.00055394e-02 2.32330129e-01 1.30060717e-01 6.96445927e-02
      2.29892135e-01 2.24844337e-01 1.36764348e-01 1.80968776e-01
      2.35884503e-01 2.35884503e-01 1.35207996e-01 6.67881668e-02
      7.63012990e-02 6.66563213e-02 6.91180602e-02 2.22983643e-01
      1.88484073e-01 1.78676382e-01 1.30676791e-01 1.52831972e-01
      1.05302341e-01 1.26785174e-01 1.57964766e-01 2.35884503e-01
      1.60589442e-01 2.49381408e-01 8.83900821e-02 6.67840764e-02
      1.76265612e-01 1.38485059e-01 7.23548979e-02 5.85386045e-02
      7.11197108e-02 1.47678643e-01 2.49381408e-01 2.10847020e-01
      2.25508362e-01 1.15187533e-01 9.69135463e-02 1.00366026e-01
      7.94543028e-02 2.03090698e-01 1.36305273e-01 6.72046840e-02
      3.60939130e-02 6.41119331e-02 1.76082507e-01 1.29662886e-01
      1.47944331e-01 1.72266752e-01 2.49381408e-01 2.49381408e-01
      2.38245487e-01 1.59595117e-01 2.10481331e-01 2.49381408e-01
      1.59204125e-01 1.51107341e-01 1.49387628e-01 2.49381408e-01
      1.77297607e-01 6.61820099e-02 1.08913802e-01 1.25473469e-01
      5.02510183e-02 3.07830926e-02 7.98512027e-02 4.46942858e-02
      1.98194027e-01 3.73007029e-01 7.57052675e-02 4.54194546e-02
      4.28266525e-02 5.37580475e-02 3.22399028e-02 9.36760530e-02
      6.60680607e-02 2.02109084e-01 3.73007029e-01 1.64854512e-01
      9.00629163e-02 6.86217695e-02 4.95895073e-02 4.09456193e-02
      6.41567707e-02 5.53754047e-02 3.73007029e-01 3.73007029e-01
      2.43075520e-01 4.24437560e-02 6.75430568e-03 2.47950875e-03
      1.43207917e-02 5.79254664e-02 5.19004203e-02 3.73007029e-01
      1.39415085e-01 6.35876060e-02 1.39376804e-01 2.25966841e-01
      9.96984988e-02 3.93359624e-02 4.16827425e-02 7.92030469e-02
      9.99378338e-02 6.86351508e-02 1.45418137e-01 3.50113422e-01
      3.50113422e-01 1.20943315e-01 2.44974382e-02 2.78840307e-02
      3.60745229e-02 2.86927223e-02 1.20295756e-01 7.26655945e-02
      3.50113422e-01 3.15894455e-01 8.79791528e-02 3.14647630e-02
      2.32154913e-02 8.86517093e-02 1.26237571e-01 7.03188777e-02
      2.16294095e-01 3.50113422e-01 3.50113422e-01 9.84604433e-02
      3.18453722e-02 2.31196713e-02 1.50007987e-02 1.91030484e-02
      9.60114747e-02 1.65042534e-01 2.38810495e-01 2.38810495e-01
      1.08305566e-01 6.10089600e-02 1.81093872e-01 1.02898516e-01
      5.27944714e-02 1.18087284e-01 9.77290422e-02 1.07420743e-01
      8.20577145e-02 1.46568194e-01 1.03560813e-01 2.38810495e-01
      2.23544180e-01 2.38810495e-01 1.11350469e-01 2.38810495e-01
      2.38810495e-01 2.38810495e-01 1.14474669e-01 6.08969778e-02
      1.54261097e-01 6.74472898e-02 3.14235091e-02 7.42788464e-02
      2.38810495e-01 2.19589502e-01 2.38810495e-01 2.38810495e-01
      1.26831472e-01 2.38810495e-01 1.27934888e-01 5.92935979e-02
      6.54190183e-02 3.17071043e-02 2.27518938e-02 8.29776227e-02
      2.49114320e-01 1.18266642e-01 1.58467665e-01 1.70964479e-01
      2.49114320e-01 1.61210597e-01 1.26811936e-01 1.05657741e-01
      1.91273302e-01 2.49114320e-01 2.49114320e-01 1.53397277e-01
      1.26943469e-01 1.86100438e-01 7.10230544e-02 1.20920248e-01
      5.09811565e-02 1.28641412e-01 2.49114320e-01 1.57561019e-01
      1.47116765e-01 1.23196237e-01 1.44944414e-01 1.53412879e-01
      1.31163290e-02 1.35575840e-02 6.01422898e-02 2.49114320e-01
      2.49114320e-01 2.11891666e-01 2.49114320e-01 2.49114320e-01
      3.02764595e-01 1.23087324e-01 7.79759064e-02 5.99194393e-02
      1.15240589e-01 9.11790878e-02 8.20421502e-02 1.08735830e-01
      2.99970865e-01 3.02764595e-01 2.00975060e-01 4.32987846e-02
      1.61753956e-03 9.26143199e-04 2.84848921e-02 9.81990322e-02
      2.70900816e-01 3.02764595e-01 1.80835277e-01 1.21204006e-02
      1.33836456e-02 1.17393434e-02 6.18023314e-02 8.00760165e-02
      1.06599189e-01 2.32785031e-01 3.02764595e-01 1.12553880e-01
      2.67085712e-02 9.89287347e-03 3.73278366e-04 2.69818772e-02
      1.19354740e-01 1.68851629e-01 3.02764595e-01 3.02764595e-01
      9.54865217e-02 7.40284100e-02 2.93768197e-01 1.86234087e-01
      1.59306347e-01 1.40186667e-01 1.74703356e-02 9.16969106e-02
      8.26173872e-02 4.17110734e-02 2.30919927e-01 2.93768197e-01
      2.93768197e-01 1.24872744e-01 9.41478983e-02 1.87760592e-02
      4.14688746e-03 9.98500455e-03 6.17945939e-02 1.05636448e-01
      1.43597707e-01 9.70985293e-02 2.93768197e-01 2.90556818e-01
      1.04615226e-01 1.59609720e-01 8.75188559e-02 3.84731703e-02
      2.31161132e-01 2.93768197e-01 2.93768197e-01 1.62994221e-01
      1.61182150e-01 4.51488681e-02 6.06515668e-02 5.21211699e-02
      5.38474843e-02 3.02905023e-01 3.02905023e-01 3.02905023e-01
      5.17629087e-02 2.22656112e-02 1.93699412e-02 1.85014203e-03
      7.12447241e-03 7.63251036e-02 3.02905023e-01 3.02905023e-01
      2.45868117e-01 1.06565915e-01 3.60278487e-02 3.01299784e-02
      7.36028375e-03 3.27168405e-02 1.22070890e-02 1.88252985e-01
      3.02905023e-01 3.02905023e-01 1.62033122e-02 3.91438557e-03
      3.35415825e-03 3.15274438e-03 7.45901745e-03 5.42775318e-02
      2.61733651e-01 3.02905023e-01 2.56728709e-01 4.05692048e-02
      1.21161062e-02 3.28695052e-03 8.77302978e-03 1.76279005e-02
      2.00954840e-01 2.71463007e-01 1.75023258e-01 1.21185310e-01
      1.26554146e-01 9.42580700e-02 5.36893234e-02 1.21595435e-01
      2.71463007e-01 2.65634596e-01 5.96719235e-02 6.18879683e-02
      4.74539027e-02 4.53832485e-02 1.10288665e-01 1.30343586e-01
      2.71463007e-01 2.71463007e-01 2.71463007e-01 2.71463007e-01
      1.73624635e-01 6.90308288e-02 4.23637964e-02 3.45687121e-02
      1.17693916e-02 4.33091484e-02 1.21197484e-01 2.47563303e-01
      2.64623106e-01 2.61668026e-01 1.13854431e-01 1.80132631e-02
      2.99105924e-02 3.59290838e-02 9.73080248e-02 1.90048769e-01
      2.41463810e-01 2.19555516e-02 2.06044391e-02 1.75352469e-02
      4.39848341e-02 5.42007983e-02 9.81267393e-02 2.19120443e-01
      2.67457455e-01 1.07026175e-01 1.94051396e-02 2.15747859e-02
      3.18052359e-02 2.67457455e-01 2.67457455e-01 2.41805270e-01
      2.67457455e-01 2.67457455e-01 9.84890983e-02 2.51293689e-01
      1.84510157e-01 7.75559694e-02 6.40452951e-02 2.63976045e-02
      3.61519642e-02 4.58546057e-02 7.50019625e-02 5.63763306e-02
      2.67457455e-01 2.67457455e-01 1.96784750e-01 2.67457455e-01
      2.41001323e-01 5.85963540e-02 1.90214645e-02 2.69595832e-02
      7.26298019e-02 1.50776103e-01 9.16593149e-02 5.87460697e-02
      1.18829362e-01 1.15735382e-01 1.82290360e-01 2.75715917e-01
      1.64174616e-01 1.18198082e-01 2.13791609e-01 2.65388131e-01
      2.75715917e-01 7.92031512e-02 6.07888624e-02 8.08984712e-02
      1.43226355e-01 1.30564064e-01 1.09825104e-01 1.06424294e-01
      3.70969921e-02 1.15818372e-02 6.01356886e-02 8.42115879e-02
      2.75715917e-01 2.75715917e-01 2.51823246e-01 2.75715917e-01
      2.39086047e-01 7.66493604e-02 6.55952096e-02 6.61418065e-02
      1.98816899e-02 1.23808064e-01 2.45829552e-01 2.41899446e-01
      4.56243567e-02 1.44915491e-01 2.06541717e-01 3.45170587e-01
      2.50636972e-02 4.94968798e-03 2.36742236e-02 9.22910031e-03
      2.60247122e-02 1.20471813e-01 3.45170587e-01 1.77338198e-01
      1.10465504e-01 1.41238086e-02 2.97169527e-03 6.61415700e-03
      3.15461610e-03 3.97497714e-02 2.96095371e-01 3.45170587e-01
      1.57723844e-01 8.03833976e-02 5.21216653e-02 5.94676659e-03
      5.23847230e-02 2.63194647e-02 1.17220722e-01 3.42324883e-01
      3.45170587e-01 3.45170587e-01 5.61255813e-02 5.18343896e-02
      1.62756373e-03 9.93689429e-03 4.40706778e-03 1.05019100e-01
      2.20998824e-01 2.46517867e-01 5.83874620e-02 7.14066485e-03
      3.73142050e-03 1.37739000e-03 7.27971259e-04 1.00061037e-02
      1.86341733e-01 2.00545341e-01 1.33335322e-01 7.02779442e-02
      3.95682119e-02 4.62304847e-03 9.18260048e-05 1.11897709e-04
      3.24833319e-02 3.05827707e-01 3.50381702e-01 3.50381702e-01
      1.52154535e-01 1.47228437e-02 2.04325952e-02 0. 0. 3.42094228e-02
      3.50381702e-01 3.50381702e-01 1.80941358e-01 2.21963953e-02
      1.59731302e-02 8.77055526e-03 0. 0. 1.30853519e-01 3.50381702e-01
      1.12733491e-01 3.11407149e-01 1.81085482e-01 7.41762966e-02
      1.21639157e-02 3.94101553e-05 1.89476428e-04 1.33415787e-02
      8.95447880e-02 1.39962226e-01 3.28282446e-01 3.28282446e-01
      8.77236500e-02 4.04563993e-02 6.74601924e-03 5.30714402e-04
      5.73607453e-04 1.85024869e-02 3.28282446e-01 3.28282446e-01
      9.34618562e-02 3.55103910e-02 8.90761241e-03 0. 0. 4.89164367e-02
      3.28282446e-01 3.28282446e-01 3.28282446e-01 1.38433143e-01
      1.86820664e-02 5.49165346e-03 0. 0. 0. 1.57135770e-01</_>
    <_>
      1.54341772e-01 6.89169541e-02 3.33428406e-03 1.05987694e-02
      3.58116403e-02 5.22269644e-02 1.28955722e-01 2.97710836e-01
      2.97710836e-01 1.19591884e-01 4.42268364e-02 1.04657458e-02
      5.24928831e-02 7.72909522e-02 1.03205338e-01 2.19077438e-01
      2.97710836e-01 2.97710836e-01 2.01633424e-01 1.86861515e-01
      4.90488485e-02 6.64768443e-02 6.46559000e-02 1.71985194e-01
      1.09634109e-01 1.00831449e-01 2.97710836e-01 1.00896642e-01
      2.36374691e-01 9.44971740e-02 1.67032912e-01 1.69356927e-01
      2.40108147e-01 2.12872759e-01 1.55962005e-01 1.53588504e-01
      2.10701600e-01 1.28992304e-01 9.21251476e-02 8.49435329e-02
      5.12368046e-02 5.50198071e-02 1.38603657e-01 2.42313266e-01
      2.42313266e-01 1.82737768e-01 1.54223919e-01 2.42313266e-01
      2.42313266e-01 2.42313266e-01 5.58807738e-02 4.39861342e-02
      5.28946146e-02 1.34714529e-01 2.35229984e-01 1.68366432e-01
      9.00633857e-02 8.36642757e-02 1.01753809e-01 1.16268598e-01
      2.21052885e-01 1.43427908e-01 1.98482230e-01 2.42313266e-01
      1.14100575e-01 1.00228414e-01 1.15062810e-01 1.45831540e-01
      1.60573736e-01 2.42313266e-01 1.67992353e-01 2.42313266e-01
      1.08519971e-01 6.29575923e-02 1.84776634e-01 2.88121551e-01
      2.53690451e-01 7.05917254e-02 4.82607298e-02 3.54922451e-02
      6.09607771e-02 2.88121551e-01 2.88121551e-01 1.75581723e-01
      1.29104987e-01 9.89996642e-02 2.81173158e-02 2.49397997e-02
      3.15104015e-02 6.88797310e-02 1.88045874e-01 1.56094208e-01
      1.01628080e-01 1.13421611e-01 1.33510575e-01 2.09095404e-01
      1.82778642e-01 1.01435848e-01 1.64936408e-01 2.88121551e-01
      2.88121551e-01 2.88121551e-01 1.85231432e-01 5.53995892e-02
      1.45706654e-01 1.00516930e-01 7.56212398e-02 1.35129839e-01
      1.40957937e-01 2.92426467e-01 2.70838708e-01 1.72003061e-01
      7.36425072e-02 3.20948591e-03 3.55247408e-03 5.08830231e-03
      1.17401471e-02 2.29675137e-02 2.92426467e-01 2.92426467e-01
      2.92426467e-01 2.27348745e-01 3.35166376e-04 1.84077391e-04
      1.09330918e-04 5.25135640e-03 2.92426467e-01 2.92426467e-01
      2.50511795e-01 7.82004595e-02 1.31728416e-02 1.76640134e-02
      3.23560983e-02 6.13444634e-02 1.03320874e-01 9.53164101e-02
      2.92426467e-01 2.92426467e-01 1.34925827e-01 2.49255244e-02
      6.17799349e-03 8.99960548e-02 9.04368684e-02 5.69353364e-02
      1.47382125e-01 2.87729263e-01 2.20024735e-01 9.93439406e-02
      5.26326373e-02 7.02056140e-02 2.88036689e-02 1.29484423e-02
      7.97478706e-02 1.30436257e-01 2.87729263e-01 2.63981074e-01
      1.34457111e-01 9.67924818e-02 1.07230015e-01 9.90817472e-02
      3.60477455e-02 5.50746806e-02 8.82165134e-02 2.87729263e-01
      2.70978004e-01 1.75479099e-01 2.04065472e-01 2.87729263e-01
      6.26698136e-02 3.32966633e-02 3.12842987e-02 1.90968230e-01
      2.87729263e-01 2.87729263e-01 1.39199376e-01 1.13568343e-01
      1.67038888e-01 5.67066483e-02 4.43929657e-02 6.36375770e-02
      1.26369298e-01 2.33506948e-01 1.42343417e-01 7.39712641e-02
      1.28479198e-01 2.05272675e-01 2.55130231e-01 1.01028480e-01
      1.16736710e-01 1.11019224e-01 4.73031774e-02 6.15351908e-02
      4.37907092e-02 1.34896219e-01 2.55130231e-01 2.55130231e-01
      1.74737543e-01 1.95588782e-01 7.52004907e-02 2.55130231e-01
      2.55130231e-01 1.30268916e-01 1.46891475e-01 2.03851819e-01
      1.38213605e-01 4.17366661e-02 3.71012688e-02 2.05730516e-02
      1.22794285e-01 2.55130231e-01 1.71745464e-01 1.80287838e-01
      2.55130231e-01 2.55130231e-01 6.60495311e-02 3.02803889e-02
      5.48072308e-02 6.10309504e-02 6.50463328e-02 6.48817196e-02
      8.98735151e-02 2.57424086e-01 2.57424086e-01 1.32082134e-01
      1.11624546e-01 2.57424086e-01 2.57424086e-01 1.78621888e-01
      1.63153753e-01 6.33597374e-02 2.57424086e-01 2.27622509e-01
      2.21258447e-01 2.57424086e-01 4.50832248e-02 3.69123444e-02
      7.12956339e-02 5.65392859e-02 6.73505738e-02 2.12203607e-01
      2.14504421e-01 1.32987916e-01 1.38187781e-01 2.57424086e-01
      8.33111778e-02 1.87962949e-02 2.56600156e-02 2.52543353e-02
      1.13216273e-01 1.64157659e-01 2.41744146e-01 2.57424086e-01
      2.20750153e-01 1.90086365e-01 8.19590017e-02 5.63595891e-02
      1.56105738e-02 3.37515734e-02 9.41509530e-02 2.24515781e-01
      2.82933086e-01 7.92327523e-02 1.38557196e-01 1.16096281e-01
      5.27479835e-02 2.70351898e-02 9.58995298e-02 2.82933086e-01
      2.82933086e-01 2.05460608e-01 1.89793706e-01 2.72804517e-02
      6.21235557e-03 1.53126465e-02 2.14335285e-02 9.83717367e-02
      1.48030907e-01 2.32583240e-01 2.82933086e-01 3.44230868e-02
      4.65861085e-04 6.78458950e-04 9.19208862e-03 1.40166253e-01
      2.82933086e-01 2.82933086e-01 2.82933086e-01 2.08385825e-01
      9.75099877e-02 8.81460756e-02 8.24919641e-02 1.26118898e-01
      2.25014508e-01 2.58632571e-01 1.64937854e-01 1.28575891e-01
      8.14461857e-02 1.91879719e-01 2.58632571e-01 2.05143854e-01
      1.21282108e-01 1.50937334e-01 2.48702347e-01 6.21818714e-02
      4.62223738e-02 7.77690113e-02 1.54037461e-01 9.74706337e-02
      7.22082555e-02 1.29942954e-01 1.98402300e-01 2.58632571e-01
      1.85266316e-01 2.02043802e-01 1.73714921e-01 1.99403912e-01
      2.58632571e-01 2.51024425e-01 1.74079850e-01 1.99949473e-01
      1.22822635e-01 5.36535271e-02 2.30857972e-02 8.36426616e-02
      7.73710832e-02 3.09639722e-01 3.09639722e-01 1.38583839e-01
      1.01291560e-01 6.51395991e-02 2.29391474e-02 1.11094378e-02
      2.06886176e-02 7.93177187e-02 3.09639722e-01 3.09639722e-01
      2.01181307e-01 8.00487846e-02 9.45621207e-02 7.23070204e-02
      1.58451069e-02 2.48643346e-02 8.58028829e-02 3.09639722e-01
      3.09639722e-01 1.60090163e-01 1.63273245e-01 7.10750893e-02
      2.45006364e-02 4.33784584e-03 1.44498758e-02 2.54173189e-01
      3.09639722e-01 2.77290463e-01 7.21680298e-02 3.74345295e-02
      3.96316089e-02 2.85832118e-02 7.80881103e-03 2.65073609e-02
      1.64578363e-01 1.27206802e-01 1.24300256e-01 9.48641300e-02
      3.11733689e-02 4.03500870e-02 6.32254928e-02 7.27994069e-02
      1.67771071e-01 2.89094746e-01 1.50587186e-01 4.54507433e-02
      5.40344752e-02 2.17026863e-02 5.69137856e-02 8.42852220e-02
      2.13079721e-01 3.16558599e-01 3.16558599e-01 3.16558599e-01
      1.02569893e-01 2.16506086e-02 7.81294890e-03 6.31552981e-03
      1.46444319e-02 5.53964637e-02 2.28818998e-01 3.16558599e-01
      2.15115517e-01 5.57428561e-02 2.16897838e-02 8.98553152e-03
      2.52670869e-02 5.53278588e-02 3.16558599e-01 3.16558599e-01
      1.02876820e-01 9.40429717e-02 5.95819093e-02 6.75382242e-02
      8.59954953e-02 1.78858191e-01 1.19119450e-01 1.26227185e-01
      1.65023267e-01 2.76131835e-02 5.04018664e-02 5.55176586e-02
      5.93016185e-02 3.17345351e-01 3.17345351e-01 2.60955155e-01
      1.10977188e-01 6.67349920e-02 2.08631381e-01 2.07726359e-01
      1.29176542e-01 4.76128384e-02 5.00224270e-02 4.02538925e-02
      2.28599254e-02 1.93015248e-01 3.07096541e-01 1.54634729e-01
      1.70289293e-01 1.36447430e-01 7.03563839e-02 3.10386121e-01
      3.17345351e-01 1.09701656e-01 5.75525239e-02 2.13664055e-01
      8.60500783e-02 4.49926741e-02 2.53069159e-02 4.78396080e-02
      9.76320505e-02 1.74443156e-01 3.31325769e-01 1.22440964e-01
      8.59030932e-02 1.61337823e-01 1.87392384e-01 1.68717250e-01
      5.84811419e-02 4.75435369e-02 4.05294523e-02 6.00881316e-02
      3.77529189e-02 7.50108510e-02 1.62987486e-01 1.91342123e-02
      7.16543384e-03 9.77287255e-03 6.66447058e-02 1.55615523e-01
      3.31325769e-01 3.31325769e-01 1.60767362e-01 3.31325769e-01
      3.31325769e-01 1.46100268e-01 1.40411574e-02 4.05220240e-02
      5.94320893e-02 2.32871234e-01 1.84938133e-01 2.62273908e-01
      5.86687848e-02 2.40735143e-01 2.14389682e-01 3.84891555e-02
      2.44554020e-02 1.13573782e-02 3.55360191e-03 4.52594552e-03
      1.32858539e-02 2.20671251e-01 3.59533489e-01 2.03810394e-01
      1.80301238e-02 6.21626573e-03 6.07058266e-03 2.44304840e-03
      4.49583080e-04 4.95691923e-03 2.84369051e-01 3.59533489e-01
      3.59533489e-01 1.16788726e-02 2.30582561e-02 2.71531218e-03
      7.70649174e-04 8.31491593e-03 4.54488210e-02 2.55664200e-01
      3.59533489e-01 3.59533489e-01 6.77681807e-03 2.35042013e-02 0.
      1.40369040e-04 7.10749882e-05 2.20909691e-03 3.42358440e-01
      3.42358440e-01 4.30677831e-02 2.18895334e-03 3.78063705e-04
      2.73509097e-04 6.34223281e-04 8.69782642e-03 9.69730169e-02
      3.42358440e-01 7.20956773e-02 8.20340496e-03 3.22770684e-05 0. 0.
      7.04653282e-03 1.00507997e-01 3.42358440e-01 3.42358440e-01
      3.42358440e-01 1.27317548e-01 1.03746075e-03 8.93737469e-03 0.
      2.10233466e-05 6.13465090e-04 7.28385076e-02 3.42358440e-01
      1.01918161e-01 3.31477006e-03 0. 3.14839184e-03 0. 3.15350189e-04
      1.19913314e-02 3.42358440e-01 2.89216280e-01 4.60941494e-02
      2.59609036e-02 1.35194440e-03 1.47675991e-03 3.96591175e-04
      4.04003961e-03 6.32360876e-02 3.69066596e-01 2.87470222e-01
      3.68443429e-02 2.57513821e-02 9.53700021e-03 2.54163388e-02
      4.23813425e-02 2.84440666e-02 1.47475014e-02 3.69066596e-01
      3.69066596e-01 7.53345760e-03 1.46012357e-03 0. 2.10169633e-03
      1.40468255e-05 1.80802032e-04 1.04228081e-02 3.69066596e-01
      3.69066596e-01 1.10569438e-02 3.35226348e-03 1.07003562e-03
      3.39996372e-03 1.05436437e-03 1.19392329e-03 6.90904865e-03
      3.69066596e-01</_>
    <_>
      1.74467713e-02 2.42977235e-02 1.00368224e-01 3.24184865e-01
      3.24184865e-01 1.46047428e-01 1.08740337e-01 4.82949875e-02
      5.12286462e-02 3.50402184e-02 2.90996954e-02 6.72935992e-02
      1.41745239e-01 1.67508602e-01 1.48659676e-01 3.24184865e-01
      3.24184865e-01 1.38294294e-01 4.41400148e-03 6.59052562e-03
      2.84225568e-02 3.24184865e-01 3.24184865e-01 2.22506419e-01
      4.68197800e-02 2.23186091e-02 1.15573676e-02 4.32186350e-02
      3.03236190e-02 4.40996140e-02 1.53756395e-01 2.43198007e-01
      1.92373723e-01 1.48217946e-01 1.16389327e-01 8.87828842e-02
      1.32807687e-01 2.94897128e-02 7.80869136e-03 4.85134171e-03
      2.00721771e-02 3.45008336e-02 3.10999304e-01 3.10999304e-01
      3.10999304e-01 3.10999304e-01 1.53960302e-01 2.93386150e-02
      5.73253259e-03 1.53747713e-02 5.36143687e-03 3.51164751e-02
      2.26300195e-01 3.10999304e-01 1.57563493e-01 5.70945144e-02
      4.49149124e-02 3.93946804e-02 4.05313894e-02 4.20624129e-02
      9.43521857e-02 2.09445745e-01 2.77765155e-01 3.10999304e-01
      1.70846418e-01 9.33359414e-02 6.92421794e-02 7.03143924e-02
      4.01477516e-02 2.82262452e-02 1.25439927e-01 2.97158569e-01
      3.21205437e-01 8.70387927e-02 2.08484493e-02 6.94324123e-03
      8.20742082e-03 4.18343116e-03 1.20666986e-02 3.78926955e-02
      3.21205437e-01 3.21205437e-01 1.24885358e-01 3.03351767e-02
      1.82922166e-02 1.59990732e-02 2.09653582e-02 3.75812314e-02
      1.14018694e-01 3.21205437e-01 3.21205437e-01 1.15303226e-01
      1.60330012e-01 1.05357401e-01 3.67527604e-02 2.19795182e-02
      3.14522088e-02 5.25986664e-02 2.78024495e-01 2.18965411e-01
      2.53938347e-01 2.39292994e-01 1.12650365e-01 5.04641645e-02
      4.96910214e-02 7.93561935e-02 1.32665440e-01 3.08153421e-01
      2.75618285e-01 2.11923450e-01 4.97394539e-02 4.87042069e-02
      1.70558557e-01 9.30578411e-02 1.25833705e-01 1.22750647e-01
      2.75618285e-01 9.45539102e-02 7.78824314e-02 3.04880943e-02
      5.85095212e-02 2.75618285e-01 2.75618285e-01 2.20704213e-01
      9.63609368e-02 5.17716035e-02 1.75351024e-01 2.51632959e-01
      1.87230811e-01 1.88735783e-01 2.75618285e-01 6.66221082e-02
      6.09992966e-02 7.26620331e-02 1.30404338e-01 6.54447749e-02
      7.45862052e-02 1.82706192e-01 2.75618285e-01 2.75618285e-01
      1.60355121e-01 4.31418940e-02 1.36755304e-02 2.94144843e-02
      4.63410001e-03 7.92148709e-03 1.10396966e-01 3.35962057e-01
      3.35962057e-01 6.06992990e-02 1.04328124e-02 3.37748951e-03
      3.62861413e-03 8.62793103e-02 7.93801546e-02 1.02560595e-01
      2.95695812e-01 1.63976520e-01 6.34571016e-02 2.49888096e-02
      1.69028789e-02 3.81907001e-02 7.49514904e-03 2.17886586e-02
      3.04107457e-01 3.35962057e-01 3.35962057e-01 1.42266657e-02
      3.45853204e-03 1.04758225e-03 5.41816605e-03 1.10697553e-01
      1.84761539e-01 2.38077432e-01 3.35962057e-01 2.50853956e-01
      4.66901436e-02 4.68034036e-02 4.78176363e-02 7.28273317e-02
      1.93655372e-01 1.18025288e-01 8.33063200e-02 8.99799243e-02
      8.51956904e-02 7.93071911e-02 8.59796405e-02 7.21761957e-02
      1.13114133e-01 1.51822507e-01 1.03808068e-01 1.54207796e-01
      1.70986041e-01 1.36356026e-01 1.46391615e-01 1.08917378e-01
      8.13692361e-02 7.99570084e-02 1.90040603e-01 2.29590327e-01
      1.77105591e-01 2.32030988e-01 2.31086537e-01 2.32030988e-01
      2.32030988e-01 1.91535309e-01 1.93661302e-01 7.85047486e-02
      1.66688755e-01 2.32030988e-01 2.32030988e-01 2.32030988e-01
      2.32030988e-01 2.32030988e-01 1.54012531e-01 6.60649911e-02
      4.23912853e-02 9.07073393e-02 2.80216485e-01 2.80216485e-01
      7.98808560e-02 4.13825475e-02 2.23361440e-02 2.03664433e-02
      3.81002575e-02 1.32158399e-01 2.80216485e-01 2.80216485e-01
      2.80216485e-01 7.17238262e-02 1.72562543e-02 2.12635342e-02
      1.90321747e-02 3.58148180e-02 1.53075485e-02 8.39813203e-02
      2.80216485e-01 2.80216485e-01 1.97058797e-01 1.07449755e-01
      9.86913368e-02 6.55049831e-02 1.10197347e-02 5.02124578e-02
      1.95579618e-01 2.80216485e-01 2.80216485e-01 2.29445338e-01
      1.01645350e-01 2.01201349e-01 1.69824496e-01 1.14302067e-02
      2.71602243e-01 2.71602243e-01 2.71602243e-01 2.09328890e-01
      1.32142276e-01 1.74846798e-02 1.38463872e-02 1.29057821e-02
      6.50576726e-02 1.40956596e-01 1.87380701e-01 2.71602243e-01
      2.71602243e-01 2.71602243e-01 1.96834523e-02 3.09244823e-03
      1.84786157e-03 3.00923903e-02 1.44978940e-01 2.71602243e-01
      2.58528084e-01 1.49651766e-01 1.29857793e-01 1.14958167e-01
      2.06621483e-01 1.43143654e-01 1.65156275e-02 6.64722472e-02
      1.18789993e-01 2.18089193e-01 1.35868952e-01 1.74123019e-01
      1.75880998e-01 9.09332857e-02 2.28580348e-02 8.13049730e-03
      5.24407998e-03 1.09895710e-02 1.66720793e-01 3.11944693e-01
      3.11944693e-01 3.32429297e-02 5.10968221e-03 2.98581622e-03
      5.29009011e-03 1.93147715e-02 6.45687133e-02 1.20061524e-01
      3.11944693e-01 3.11944693e-01 8.15960839e-02 3.54278870e-02
      2.54618190e-02 2.26740669e-02 8.69474858e-02 3.57708484e-02
      8.99773836e-02 3.11944693e-01 3.11944693e-01 7.65738040e-02
      7.72986785e-02 1.85125649e-01 2.35164091e-01 2.93422025e-02
      5.26032932e-02 1.02281541e-01 3.11944693e-01 3.11944693e-01
      1.30631298e-01 5.05134985e-02 6.49151206e-02 7.06761405e-02
      2.88021341e-02 6.55235052e-02 1.11824237e-01 2.58888423e-01
      2.58888423e-01 2.46222883e-01 1.50714561e-01 8.51758569e-02
      4.67352755e-02 4.88390848e-02 5.69695346e-02 1.34644628e-01
      2.31015012e-01 2.10866824e-01 2.37291917e-01 2.05610916e-01
      1.49541959e-01 4.01401669e-02 8.08336865e-03 2.55281534e-02
      8.18248913e-02 2.58888423e-01 2.58888423e-01 2.58888423e-01
      2.01594546e-01 1.21733822e-01 4.57783788e-03 6.19162656e-02
      3.07245702e-02 6.35227859e-02 1.82043046e-01 1.36310726e-01
      2.11361855e-01 2.58888423e-01 2.58888423e-01 7.47887269e-02
      3.58462222e-02 4.46611941e-02 1.19854875e-01 2.24446997e-01
      1.63575813e-01 1.22193776e-01 2.08228782e-01 2.81072795e-01
      8.80996808e-02 8.82097706e-03 1.57453064e-02 5.26158474e-02
      1.89319029e-01 1.41165361e-01 1.31979674e-01 3.03530216e-01
      3.03530216e-01 8.00139308e-02 7.93796256e-02 4.37263064e-02
      2.53333915e-02 4.87117656e-02 9.05335397e-02 1.11454286e-01
      2.60715842e-01 3.03530216e-01 1.54336363e-01 1.83140561e-02
      2.21000090e-02 7.16197025e-03 2.52673589e-02 6.16781935e-02
      2.70726204e-01 3.03530216e-01 3.03530216e-01 1.07463084e-01
      4.67481231e-03 1.79296546e-02 1.86329726e-02 3.07689961e-02
      5.14688492e-02 1.78421542e-01 3.35882455e-01 3.35882455e-01
      7.66354380e-03 4.13038861e-03 8.45963322e-03 9.19397362e-03
      1.42467432e-02 9.56662819e-02 3.07111740e-01 2.68646181e-01
      5.63723929e-02 1.81840768e-03 2.29947604e-04 2.45276792e-03
      6.22177788e-04 3.11717601e-03 2.13441271e-02 3.35882455e-01
      3.35882455e-01 2.95460254e-01 1.13600856e-02 2.23709457e-03 0.
      1.74202654e-03 8.77123419e-03 1.22416623e-01 3.35882455e-01
      3.35882455e-01 3.73020433e-02 2.23709457e-03 1.47310555e-01
      5.51868603e-02 7.33862594e-02 1.48043677e-01 2.23232105e-01
      2.19839588e-01 1.84319943e-01 2.58687288e-01 2.58687288e-01
      8.69525969e-02 8.57067108e-02 1.85853183e-01 2.58687288e-01
      2.58687288e-01 1.69582695e-01 8.02805498e-02 1.35498658e-01
      1.35514945e-01 3.32529098e-02 1.69949010e-02 1.54532669e-02
      1.95458122e-02 1.40406758e-01 2.58687288e-01 2.58687288e-01
      2.20205486e-01 1.43562257e-01 8.14216956e-02 4.55947332e-02
      7.55991861e-02 1.30408451e-01 1.29185393e-01 1.76133022e-01
      1.69046536e-01 2.37170413e-01 1.88527107e-01 4.55488488e-02
      5.69018014e-02 1.49592936e-01 2.57720232e-01 2.25234777e-01
      2.22005904e-01 1.75704733e-01 9.23074260e-02 1.08542750e-02
      9.07383934e-02 1.07166559e-01 9.80243385e-02 1.24981143e-01
      9.26719680e-02 1.85683787e-01 2.57720232e-01 2.57720232e-01
      1.01958714e-01 2.04266265e-01 1.70858413e-01 1.93691999e-01
      2.21491382e-01 9.87528116e-02 6.33626953e-02 4.63662818e-02
      7.41686672e-02 1.78342983e-01 2.57720232e-01 2.57720232e-01
      2.57720232e-01 9.97223556e-02 7.16522932e-02 8.26415494e-02
      2.01339424e-01 1.56648934e-01 1.88619778e-01 6.67790994e-02
      4.79717925e-02 2.08656006e-02 2.86608934e-02 7.33593404e-02
      1.48015395e-01 2.90106177e-01 2.50781745e-01 9.95397344e-02
      1.16316862e-02 2.12845579e-02 9.89469420e-03 3.95564027e-02
      1.23212367e-01 2.90106177e-01 2.90106177e-01 1.47283033e-01
      3.67252678e-02 1.80468783e-01 1.61865771e-01 1.15164429e-01
      6.84343744e-03 4.19301763e-02 2.53337175e-01 2.90106177e-01
      2.78502822e-01 1.56831160e-01 1.06789567e-01 6.41453862e-02
      3.05157360e-02 3.87563668e-02 1.39316067e-01 2.90106177e-01
      2.90106177e-01 2.20832035e-01 1.31325215e-01 1.00741663e-03
      4.37514111e-03 4.48479177e-03 1.33760152e-02 1.54480711e-01
      3.26104701e-01 3.04830253e-01 3.05384863e-02 4.85109026e-03
      1.57048786e-03 1.23694801e-04 1.99384498e-03 9.25360341e-03
      2.96153247e-01 3.26104701e-01 1.23351842e-01 1.13757909e-03
      1.55938754e-03 9.54240710e-02 9.57497507e-02 1.12807527e-01
      9.94231328e-02 3.11301470e-01 3.26104701e-01 1.05697550e-01
      3.58988345e-02 4.93649319e-02 2.05974840e-02 4.07005809e-02
      1.67103484e-01 2.47457922e-01 3.26104701e-01 3.26104701e-01
      1.02210306e-02 0. 2.47671967e-03</_>
    <_>
      1.26933232e-01 1.04097359e-01 1.48727179e-01 1.02018416e-01
      5.84373251e-02 1.00889295e-01 2.33642325e-01 3.33578587e-01
      1.89095601e-01 2.09988341e-01 8.24946314e-02 2.62641013e-02
      2.07533278e-02 9.64003056e-02 5.74115627e-02 1.54279098e-01
      3.33578587e-01 3.33578587e-01 2.14623302e-01 1.55975103e-01
      9.29407552e-02 5.86350709e-02 3.45320366e-02 2.21766345e-02
      1.03353642e-01 1.69707790e-01 1.73632041e-01 2.56902397e-01
      1.40139207e-01 4.00680788e-02 6.01811036e-02 1.98085278e-01
      1.73363358e-01 6.47937804e-02 1.59520969e-01 2.59673446e-01
      1.96389899e-01 4.92060520e-02 5.46605152e-04 2.36216523e-02
      1.11798011e-01 3.79848219e-02 8.07675794e-02 2.98243493e-01
      2.98243493e-01 2.98243493e-01 2.98243493e-01 9.39108059e-02
      5.61514385e-02 6.12679832e-02 1.93143729e-02 3.14242132e-02
      2.37693071e-01 2.98243493e-01 9.32797492e-02 4.27052826e-02
      1.83479581e-02 8.49664956e-02 2.82550961e-01 2.54017621e-01
      7.06520826e-02 1.78821996e-01 1.72021374e-01 1.95863396e-01
      2.57464767e-01 1.18304916e-01 1.14104211e-01 1.33268222e-01
      1.24111317e-01 3.80625166e-02 9.34601352e-02 1.12519898e-01
      2.75049299e-01 2.75049299e-01 2.08339497e-01 9.69672203e-02
      2.50610560e-02 1.46597466e-02 3.99528593e-02 9.40167345e-03
      8.11893046e-02 2.75049299e-01 2.75049299e-01 1.95116580e-01
      7.93701634e-02 2.28563011e-01 1.72890618e-01 9.63413492e-02
      3.15920524e-02 8.61915275e-02 1.70851529e-01 2.75049299e-01
      2.06441298e-01 1.34671971e-01 5.25810011e-02 8.06334019e-02
      7.77349398e-02 2.81499047e-02 5.58101013e-02 2.07052663e-01
      1.49195433e-01 1.44957334e-01 1.74026713e-01 2.70594954e-01
      2.72595555e-01 1.54346004e-01 7.16632828e-02 1.03802241e-01
      1.41291365e-01 2.80508876e-01 1.48124665e-01 8.09405297e-02
      1.92385152e-01 1.09522007e-01 5.05828485e-02 4.54992764e-02
      1.01263009e-01 3.12102556e-01 2.66540885e-01 1.00940868e-01
      7.60545656e-02 1.21146373e-01 3.26905996e-02 4.98943701e-02
      5.50578423e-02 1.52473778e-01 3.42608899e-01 1.32373139e-01
      6.25623092e-02 7.70714805e-02 1.56395480e-01 1.16489835e-01
      6.52937815e-02 6.59773573e-02 2.21891537e-01 3.42608899e-01
      3.33806306e-01 2.55229101e-02 2.73638591e-02 6.14688508e-02
      2.29125395e-02 3.07743866e-02 4.89420556e-02 3.13231409e-01
      1.51075035e-01 9.40596089e-02 8.06902051e-02 1.11563295e-01
      1.06191769e-01 1.08097062e-01 9.07618925e-02 9.12757665e-02
      1.28914014e-01 2.40277886e-01 1.58095717e-01 1.21127114e-01
      1.72626629e-01 1.85289249e-01 1.62122771e-01 3.05508338e-02
      2.89703161e-02 1.33081719e-01 1.31951898e-01 1.29649624e-01
      2.40277886e-01 2.40277886e-01 2.40277886e-01 2.13899404e-01
      1.02453761e-01 1.00673310e-01 2.37007678e-01 2.40277886e-01
      1.83899105e-01 2.40277886e-01 2.40277886e-01 2.32256427e-01
      1.59655020e-01 5.25063761e-02 8.12507942e-02 2.40277886e-01
      1.16845004e-01 1.19959429e-01 1.30643412e-01 1.99575663e-01
      2.37129733e-01 2.47108370e-01 2.89210137e-02 2.91060135e-02
      5.95631339e-02 1.52484015e-01 2.61795193e-01 2.61795193e-01
      2.45286524e-01 1.40403092e-01 1.21623002e-01 2.27695890e-02
      3.50378975e-02 2.43071448e-02 1.63219020e-01 2.26764828e-01
      2.33377397e-01 2.30283350e-01 1.91612154e-01 1.63230613e-01
      3.78563739e-02 5.64469099e-02 1.30422205e-01 9.50884894e-02
      2.61795193e-01 2.61795193e-01 2.61795193e-01 1.97545990e-01
      7.97234774e-02 2.70823818e-02 2.54129339e-02 2.50467360e-02
      9.41546857e-02 2.31579572e-01 2.10672677e-01 7.34244511e-02
      6.13483787e-02 2.03128800e-01 5.29101454e-02 3.56457531e-02
      4.84207124e-02 1.06799029e-01 1.17533684e-01 1.08846627e-01
      1.33820415e-01 2.91428357e-01 2.91428357e-01 1.30752727e-01
      5.15404269e-02 6.45304993e-02 4.51804437e-02 2.36627370e-01
      2.91428357e-01 8.73483419e-02 7.36907125e-02 2.85794497e-01
      1.47984102e-01 6.30545691e-02 3.94884273e-02 1.64662115e-02
      4.76892032e-02 5.96023574e-02 4.61755209e-02 2.05729797e-01
      2.91428357e-01 2.91428357e-01 2.91428357e-01 1.18923537e-01
      3.10034573e-01 1.32411554e-01 6.66536540e-02 8.36778581e-02
      1.87656641e-01 2.02689826e-01 7.70431608e-02 4.43262979e-02
      1.16524555e-01 3.14839333e-01 1.85653746e-01 1.92770474e-02
      1.81713682e-02 6.02348335e-02 3.29444036e-02 3.86751927e-02
      4.50364947e-02 2.85040319e-01 8.15204307e-02 1.89018231e-02
      1.28655955e-02 2.81521082e-02 1.17488667e-01 2.64826298e-01
      2.42806256e-01 2.85622597e-01 3.14839333e-01 3.14839333e-01
      2.41085198e-02 4.34183190e-03 8.10469687e-03 3.50691043e-02
      3.12058087e-02 5.27121574e-02 1.21441022e-01 3.14839333e-01
      1.12962484e-01 1.31782293e-01 2.40377665e-01 2.40377665e-01
      1.56558797e-01 4.84031104e-02 2.50777472e-02 4.70589511e-02
      1.96713895e-01 1.09418958e-01 8.85051414e-02 2.40377665e-01
      2.40377665e-01 1.91871643e-01 2.12880030e-01 8.83762762e-02
      7.32891783e-02 1.09163143e-01 1.80767193e-01 1.71527728e-01
      2.04472482e-01 2.40377665e-01 1.79455653e-01 3.64972427e-02
      2.60273628e-02 6.60465956e-02 2.24866077e-01 8.38707313e-02
      2.40377665e-01 2.40377665e-01 2.40377665e-01 2.40377665e-01
      2.10230291e-01 7.49066174e-02 3.04193590e-02 3.45307849e-02
      5.48079014e-02 8.63815099e-02 9.69102159e-02 1.50153965e-01
      2.50854075e-01 2.50854075e-01 8.53972062e-02 5.75259514e-02
      6.18830696e-02 4.35235798e-02 2.10160851e-01 2.18282908e-01
      1.96345657e-01 2.50854075e-01 1.95033848e-01 1.08267434e-01
      1.25000983e-01 2.35790461e-02 2.97782216e-02 1.64079070e-01
      2.50854075e-01 2.50854075e-01 2.50854075e-01 2.50854075e-01
      7.39390552e-02 2.90596019e-02 1.62805337e-02 5.82276769e-02
      7.26275146e-02 1.75531626e-01 2.50854075e-01 2.50854075e-01
      1.83195040e-01 1.47050992e-01 2.09975615e-01 5.44988289e-02
      9.12182033e-02 2.13844493e-01 1.79148436e-01 1.29975498e-01
      8.80912021e-02 1.63364589e-01 2.54455537e-01 2.08903611e-01
      7.91420639e-02 7.89364055e-02 1.43977910e-01 9.52710509e-02
      9.21016484e-02 3.86339165e-02 2.54455537e-01 2.54455537e-01
      2.54455537e-01 2.10208118e-01 1.98473930e-01 1.82471350e-01
      1.18947864e-01 8.10585916e-02 4.53158468e-02 5.60194589e-02
      1.30030215e-01 2.54455537e-01 1.47810772e-01 1.95414677e-01
      2.54455537e-01 1.26152411e-01 6.81425780e-02 1.31029403e-02
      7.51303732e-02 1.58572823e-01 2.54063576e-01 1.99429661e-01
      9.29262117e-02 2.77820043e-02 1.67065281e-02 2.22208127e-02
      1.21293347e-02 1.02613397e-01 2.50572890e-01 3.32228035e-01
      3.32228035e-01 3.32228035e-01 6.02622703e-03 6.06446853e-03
      1.44282430e-02 2.99573457e-03 1.97862219e-02 8.75474140e-02
      2.79086977e-01 3.32228035e-01 7.43111297e-02 1.26420245e-01
      4.22763303e-02 2.10538041e-02 6.52962131e-03 6.30476326e-02
      9.33068171e-02 2.14772686e-01 2.30392590e-01 1.08602047e-01
      2.20919460e-01 2.01752499e-01 6.41651154e-02 8.53317138e-03
      3.56023014e-02 1.09329574e-01 1.83220938e-01 3.12007278e-01
      1.36589989e-01 1.83413014e-01 1.84207529e-01 1.98804244e-01
      1.02344252e-01 3.64807583e-02 3.73306721e-02 1.27608329e-01
      2.03760579e-01 6.76129907e-02 2.51439691e-01 2.51439691e-01
      2.51439691e-01 9.71996561e-02 5.15757538e-02 2.51242425e-02
      1.31742945e-02 2.59371214e-02 1.07087329e-01 1.23684399e-01
      2.51439691e-01 2.51439691e-01 2.51439691e-01 2.42945567e-01
      8.81771892e-02 1.49091542e-01 9.81893688e-02 4.62812074e-02
      2.51439691e-01 2.51439691e-01 2.51439691e-01 2.40885556e-01
      1.66254938e-01 1.47412717e-02 8.98627844e-03 6.33368129e-03
      3.56635787e-02 3.03856611e-01 3.03856611e-01 3.03856611e-01
      9.26020145e-02 6.05431423e-02 2.19804589e-02 8.68294202e-03
      1.02805756e-02 5.27042113e-02 1.61003023e-01 3.03856611e-01
      3.03856611e-01 7.65210837e-02 5.49779646e-02 4.19564694e-02
      5.55482544e-02 2.88941730e-02 3.58492360e-02 2.16528624e-01
      3.03856611e-01 2.34437898e-01 1.37833327e-01 3.12230773e-02
      9.06701945e-03 4.09126794e-03 6.33401237e-03 4.04713675e-02
      2.32787102e-01 3.03856611e-01 3.03856611e-01 1.46639690e-01
      1.48830116e-02 8.28257203e-03 1.80863007e-03 5.51920570e-03
      1.67059556e-01 1.60556018e-01 1.54513672e-01 5.21458797e-02
      1.00773023e-02 7.27238180e-03 1.00235194e-02 5.11121824e-02
      9.03971195e-02 2.55787164e-01 1.09157793e-01 4.27218191e-02
      5.26368525e-03 2.80425465e-03 1.60728768e-02 1.81867257e-02
      1.31553829e-01 3.33206952e-01 3.36222738e-01 3.36222738e-01
      3.36222738e-01 1.59305707e-01 5.77383228e-02 1.10137812e-03
      5.85706439e-04 4.59557073e-03 8.37201923e-02 3.36222738e-01
      2.59813964e-01 1.40826508e-01 2.23397035e-02 2.53940765e-02
      1.13312402e-04 1.45539164e-03 8.79845694e-02 3.36222738e-01
      1.68110624e-01 1.22600235e-01 2.48203482e-02 1.11121836e-03
      1.50256534e-03 1.73510388e-02 1.91150457e-02 9.50388163e-02
      2.23079279e-01 2.26421058e-01 3.65284175e-01 2.09915966e-01
      1.61968172e-02 2.06321478e-03 6.35662954e-03 1.36151845e-02
      2.08397321e-02 5.97058646e-02 3.65284175e-01 1.26432896e-01
      1.23675363e-02 0. 5.07950643e-03 9.53514173e-05 1.77008030e-03
      7.57687092e-02 3.65284175e-01 3.65284175e-01 3.65284175e-01
      8.75862390e-02 7.19786694e-05 2.07196502e-03 6.35676179e-06
      3.59124708e-04 9.40403622e-03 3.10351759e-01</_>
    <_>
      5.66542754e-03 1.31583691e-03 6.92452188e-04 1.99562055e-04
      1.60495676e-02 3.02269813e-02 4.45000082e-01 2.31583878e-01
      6.18807506e-03 2.07168749e-04 2.70843552e-03 5.76045422e-04
      7.27397623e-04 9.22856759e-03 4.40585911e-02 4.45000082e-01
      1.61726654e-01 1.70225612e-04 1.60375831e-03 4.97499993e-03
      3.40018701e-03 4.21027187e-03 6.33639237e-03 3.77673693e-02
      4.45000082e-01 2.11662486e-01 1.74051640e-03 1.86242265e-04
      5.60856471e-03 4.23527905e-04 3.07001709e-03 2.84489803e-03
      5.62339611e-02 4.45000082e-01 2.66178131e-01 2.63037684e-04
      2.87509011e-03 1.39341771e-03 3.64808179e-03 6.44657062e-03
      1.38753671e-02 5.96845187e-02 4.89285618e-01 1.39725715e-01
      3.36145423e-03 5.29468758e-03 3.21509154e-03 7.84351025e-03
      3.30994800e-02 6.44109845e-02 4.39129248e-02 3.05551261e-01
      5.69771565e-02 1.77847669e-02 6.12187025e-04 4.28487454e-03
      6.06380636e-04 5.93158184e-03 6.82707643e-03 1.09362334e-01
      4.89285618e-01 2.88773745e-01 7.59712188e-04 2.47550122e-02
      4.12544422e-02 1.27349589e-02 4.08108123e-02 8.15659165e-02
      1.15675673e-01 4.89285618e-01 1.68792427e-01 3.52355838e-02
      6.24510683e-02 4.43232283e-02 3.00754048e-02 9.79434699e-02
      1.71115935e-01 8.99467617e-02 7.68981799e-02 2.09872946e-02
      1.71985254e-02 1.18194535e-01 2.88557291e-01 1.97341591e-01
      9.74030867e-02 1.59377009e-01 1.76348105e-01 1.10160008e-01
      1.57266874e-02 9.59491730e-03 9.38488394e-02 1.58513218e-01
      8.89864042e-02 1.92386582e-01 2.88557291e-01 1.66902468e-01
      2.88557291e-01 1.05188064e-01 4.86015677e-02 1.59136683e-01
      2.88557291e-01 2.88557291e-01 2.26297736e-01 2.88557291e-01
      2.42017686e-01 2.03912288e-01 9.18470174e-02 2.22343337e-02
      4.86700498e-02 3.25217038e-01 3.15656811e-01 3.08056008e-02
      2.49717552e-02 3.46337594e-02 2.22176034e-02 5.19220624e-03
      1.41420159e-02 9.00830179e-02 3.25217038e-01 3.25217038e-01
      1.67986512e-01 1.88030243e-01 8.95036981e-02 7.58359209e-02
      3.95441912e-02 5.94445094e-02 5.78462332e-02 3.25217038e-01
      3.25217038e-01 6.45152032e-02 2.86409575e-02 3.56582589e-02
      2.71705780e-02 1.40876910e-02 1.60636436e-02 5.59757203e-02
      3.25217038e-01 3.25217038e-01 1.84960589e-01 9.65146795e-02
      2.04150025e-02 1.82188824e-02 2.80096065e-02 3.67561989e-02
      5.52520249e-03 1.00004179e-02 6.48802007e-03 8.91326554e-03
      2.15973910e-02 7.69944340e-02 4.70921189e-01 1.67653933e-01
      7.15979375e-03 6.25197019e-04 4.57456009e-03 2.13440205e-03
      4.76676133e-03 1.18474364e-02 1.90684795e-01 4.70921189e-01
      3.83410186e-01 3.22701922e-03 1.62065923e-02 1.66007336e-02
      9.59952455e-03 5.00448188e-03 2.56566107e-02 4.36406508e-02
      1.09024420e-01 5.20154499e-02 2.04620380e-02 6.83543039e-03
      1.71478987e-02 1.68841928e-02 1.45895844e-02 2.51731277e-02
      2.45202869e-01 4.70921189e-01 1.77242577e-01 1.96525529e-02
      3.12037929e-03 1.46706123e-03 5.08388737e-03 3.76039115e-03
      1.48739889e-02 1.44651040e-01 3.59971613e-01 1.78523809e-01
      1.52527227e-03 4.92209159e-02 7.71448016e-02 4.57671545e-02
      2.31772028e-02 5.29496036e-02 1.80572778e-01 3.59971613e-01
      1.00162715e-01 5.52933849e-02 7.25414185e-03 2.39531160e-03
      1.81246158e-02 3.19978371e-02 8.88663605e-02 3.11286837e-01
      3.59971613e-01 1.17648549e-01 7.71042891e-03 4.34647128e-02
      1.11115985e-01 1.29690260e-01 1.29278958e-01 2.99295664e-01
      3.21408302e-01 3.59971613e-01 5.22270910e-02 4.49857675e-02
      1.13080658e-01 2.03539088e-01 1.18205301e-01 1.34482712e-01
      1.87249273e-01 1.50831953e-01 2.49423534e-01 9.25533772e-02
      7.60646760e-02 1.45062834e-01 2.49423534e-01 2.49423534e-01
      1.85185775e-01 2.21353054e-01 1.30307391e-01 1.46704853e-01
      9.58437547e-02 3.68030481e-02 8.54873955e-02 2.49423534e-01
      2.49423534e-01 2.25379273e-01 2.49423534e-01 1.26095220e-01
      1.34764433e-01 4.56032790e-02 5.96728884e-02 1.41877383e-01
      2.49423534e-01 2.49423534e-01 1.60580948e-01 1.61398649e-01
      7.20666945e-02 6.89109787e-02 7.45212585e-02 5.22388704e-02
      1.10269740e-01 3.87060761e-01 3.87060761e-01 1.18298411e-01
      5.84473275e-02 3.76620777e-02 4.68905829e-02 3.88636887e-02
      2.59976014e-02 5.24531640e-02 3.87060761e-01 3.87060761e-01
      1.17371567e-01 4.22275998e-02 2.72347382e-03 8.62011500e-03
      3.38299759e-02 3.07113100e-02 1.09485820e-01 3.56973320e-01
      3.87060761e-01 6.33573160e-02 5.04509695e-02 3.12965102e-02
      4.24436368e-02 4.56922054e-02 4.19495478e-02 4.60965820e-02
      1.08505480e-01 1.31910533e-01 3.39614153e-02 4.04685251e-02
      1.70492604e-02 3.08974162e-02 4.90412675e-02 2.92283092e-02
      3.43401693e-02 3.99391502e-02 3.11011821e-02 2.68639978e-02
      3.99679765e-02 2.67018210e-02 5.27395718e-02 7.25090802e-02
      4.80710790e-02 2.59349290e-02 1.41329765e-01 2.53874093e-01
      1.18352987e-01 6.67775720e-02 1.76151305e-01 4.05582845e-01
      1.11236140e-01 4.37645279e-02 9.06942487e-02 2.79373497e-01
      3.14088613e-01 7.92165250e-02 3.39028016e-02 3.87871377e-02
      6.19281903e-02 6.45680055e-02 9.86649394e-02 1.39927104e-01
      4.16407257e-01 4.16407257e-01 2.80536264e-01 4.60506752e-02
      3.97019498e-02 4.97624874e-02 2.15798598e-02 4.50763702e-02
      3.37614026e-03 5.32429293e-02 1.61386117e-01 1.52038693e-01
      1.66097894e-01 1.88033670e-01 2.41065025e-01 3.71563844e-02
      7.76493410e-03 6.84654992e-03 6.74605593e-02 1.66735798e-01
      2.94454515e-01 2.94454515e-01 1.96305782e-01 1.23682298e-01
      1.55748809e-02 4.56036860e-03 4.25691903e-02 2.94454515e-01
      2.94454515e-01 2.07195401e-01 8.16379935e-02 2.38014404e-02
      1.21502643e-02 3.69213591e-03 6.17168052e-03 1.58421807e-02
      2.75245160e-01 2.94454515e-01 2.94454515e-01 2.94454515e-01
      3.04990988e-02 4.17769002e-03 8.91412084e-04 5.73810772e-04
      3.45840938e-02 2.90316641e-01 3.31381321e-01 3.31381321e-01
      3.31381321e-01 9.13581997e-02 2.85383202e-02 1.63332969e-02
      1.62007920e-02 8.79939049e-02 2.06199646e-01 2.23913789e-01
      1.49015486e-01 1.90376058e-01 3.80491093e-02 4.17940393e-02
      3.87186594e-02 3.58587764e-02 8.96345265e-03 1.59502760e-01
      3.31381321e-01 3.31381321e-01 3.31381321e-01 4.17773947e-02
      6.60769641e-03 7.82047957e-03 2.22921371e-03 1.54917743e-02
      2.88507510e-02 4.04904708e-02 9.65146199e-02 1.77356496e-01
      5.90053536e-02 3.73092443e-02 4.40652147e-02 1.16963461e-02
      2.52782971e-01 2.52782971e-01 2.52782971e-01 1.48988694e-01
      1.67482361e-01 1.89555854e-01 2.12783352e-01 1.23885244e-01
      1.51648089e-01 2.52782971e-01 1.47227943e-01 9.65505987e-02
      6.64119944e-02 9.10435915e-02 1.32608667e-01 2.12557837e-01
      1.68471247e-01 1.81725472e-01 1.61517575e-01 8.92080888e-02
      4.56408039e-02 3.26446928e-02 1.67859972e-01 1.86375409e-01
      1.79914817e-01 2.36476570e-01 1.50315151e-01 2.52782971e-01
      1.25527307e-01 2.79975347e-02 2.06981748e-02 4.19393703e-02
      6.91908449e-02 9.06080380e-02 1.83546633e-01 2.52782971e-01
      4.53594215e-02 3.58176619e-01 2.84610361e-01 1.79533940e-02
      4.07928554e-03 4.58097830e-03 4.23190789e-03 6.66482421e-03
      1.99656561e-02 5.44944033e-02 3.58176619e-01 3.58176619e-01
      7.05825910e-02 3.56259476e-03 2.88419309e-03 5.09336870e-03
      2.67031207e-03 1.42672677e-02 5.06750196e-02 3.58176619e-01
      3.58176619e-01 1.43164955e-02 2.91763227e-02 6.31267903e-03
      1.25995069e-03 2.62158085e-03 1.18487999e-02 3.75221372e-02
      3.58176619e-01 3.58176619e-01 2.82309726e-02 1.34360744e-02
      2.78510223e-03 7.47830665e-04 2.94684968e-03 9.06378031e-03
      6.78013787e-02 3.66240710e-01 3.66240710e-01 9.96327326e-02
      4.86607291e-03 1.18650834e-03 8.04249663e-03 2.85164942e-03
      1.13314847e-02 3.36222425e-02 3.66240710e-01 3.66240710e-01
      2.25294128e-01 3.82763818e-02 7.69418944e-03 4.53547575e-03
      3.68950726e-03 3.61212762e-03 3.09860464e-02 3.66240710e-01
      3.66240710e-01 2.77996883e-02 1.15742199e-02 7.05544418e-03
      4.72248904e-03 2.53346353e-03 1.05606532e-02 3.05086989e-02
      2.74923563e-01 2.03775838e-01 2.83550732e-02 2.75010038e-02
      3.58273312e-02 1.32806730e-02 8.82348139e-03 1.20178619e-02
      7.11631626e-02 3.81942302e-01 3.81942302e-01 3.81942302e-01
      3.11594933e-01 1.27193660e-01 4.18889932e-02 5.57391755e-02
      2.11797878e-02 4.13414948e-02 4.60663103e-02 8.33223090e-02
      1.31769702e-01 2.19498798e-01 1.81365639e-01 7.93701410e-02
      1.09234042e-01 3.86000760e-02 8.11308548e-02 2.52236575e-01
      2.85153866e-01 9.96322557e-02 1.09985463e-01 1.88391104e-01
      1.08354338e-01 1.06202945e-01 6.21574149e-02 5.05225360e-02
      5.17099239e-02 1.08577646e-01 8.18272829e-02 1.06598780e-01
      1.36633068e-01 8.87896866e-02 7.40028694e-02 5.43086678e-02
      1.89811647e-01 1.51409701e-01 9.86873358e-02 6.15491755e-02
      1.37543529e-01 1.67878166e-01 1.23098679e-01 2.59516418e-01
      1.81551367e-01 2.59516418e-01 1.97310194e-01 7.45094642e-02
      2.04158854e-02 5.06391153e-02 2.83002220e-02 4.05007005e-02
      1.89273298e-01 2.59516418e-01 2.08954275e-01 2.25848287e-01
      2.00528055e-01 1.54566810e-01 2.20629364e-01 1.75473765e-01
      8.82042199e-02 3.86487767e-02 1.27475694e-01 2.59516418e-01
      2.59516418e-01 2.00287104e-01 5.36821969e-02 1.81081131e-01
      8.38309675e-02 6.48581460e-02 3.16868424e-02 2.35472649e-01</_>
    <_>
      8.94044936e-02 9.61944014e-02 6.16657697e-02 5.18437102e-02
      2.90550217e-02 1.37003092e-02 2.50515956e-02 3.70873176e-02
      4.90218475e-02 2.41534486e-01 1.29197508e-01 8.06159452e-02
      4.82471772e-02 2.91727781e-02 1.04625067e-02 2.85322387e-02
      1.19152635e-01 2.61144072e-01 1.03764109e-01 1.29372746e-01
      1.52178392e-01 1.68319359e-01 2.61144072e-01 1.95319995e-01
      1.73570037e-01 5.49494922e-02 5.49883805e-02 2.61144072e-01
      2.61144072e-01 2.49772534e-01 2.04719365e-01 2.61144072e-01
      2.55354375e-01 2.61144072e-01 2.61144072e-01 2.61144072e-01
      1.40530631e-01 1.41037166e-01 2.74451226e-02 7.48105254e-03
      5.27967000e-03 2.38136458e-03 1.37248561e-02 6.43080920e-02
      1.59980789e-01 3.08286488e-01 3.42747897e-01 1.21071659e-01
      5.96520025e-03 4.30245697e-03 5.91019576e-04 5.12694381e-03
      1.12190861e-02 5.33783995e-02 3.32741618e-01 3.42747897e-01
      1.32555827e-01 4.46877778e-02 4.19562683e-02 3.41089703e-02
      9.31480452e-02 1.84759051e-01 2.98025787e-01 3.42747897e-01
      3.42747897e-01 2.63854712e-01 3.49074453e-02 3.29914242e-02
      1.84073392e-02 1.86802633e-02 2.39809155e-02 7.40644559e-02
      2.65919685e-01 2.65919685e-01 8.76360387e-02 9.56230983e-03
      9.40097123e-03 1.89957246e-02 2.43628789e-02 4.94786091e-02
      1.51787981e-01 2.38145456e-01 7.68141747e-02 1.91623550e-02
      2.80039404e-02 9.07048807e-02 1.81845486e-01 1.35559887e-01
      1.53675422e-01 2.38133743e-01 2.65919685e-01 2.65919685e-01
      2.26158321e-01 7.70896599e-02 6.65124133e-02 5.38384728e-02
      3.77542265e-02 5.65164946e-02 1.04849756e-01 1.51174083e-01
      2.65919685e-01 2.21153110e-01 2.21438497e-01 2.65919685e-01
      2.64614582e-01 1.32576019e-01 1.56976953e-01 1.48114994e-01
      7.04124644e-02 1.28088761e-02 1.32131567e-02 4.50430475e-02
      2.86949813e-01 3.17883193e-01 2.84644693e-01 2.29742527e-01
      1.99447647e-01 4.20460813e-02 2.74713412e-02 9.05350968e-03
      1.08554326e-02 9.02044699e-02 6.25170618e-02 3.07144430e-02
      4.74483147e-02 4.65147980e-02 2.77205929e-02 1.29472047e-01
      2.62570560e-01 3.17883193e-01 3.17883193e-01 3.17883193e-01
      3.08099478e-01 2.27058575e-01 1.05024405e-01 4.93571721e-02
      3.07614915e-02 2.57952753e-02 5.17867208e-02 1.87631994e-01
      1.22408710e-01 6.32674843e-02 3.43251415e-02 5.62461987e-02
      1.71737373e-02 2.17168760e-02 3.40762846e-02 5.07277325e-02
      1.97170407e-01 2.27843463e-01 1.38345271e-01 2.14284044e-02
      1.31461741e-02 9.62506980e-02 1.19999625e-01 1.49399579e-01
      2.15913475e-01 3.31510603e-01 3.31510603e-01 2.90228099e-01
      1.23530418e-01 8.42316449e-02 7.86225311e-03 3.36280302e-03
      1.04686972e-02 4.70022038e-02 2.97124833e-01 1.58291385e-01
      4.25248109e-02 1.57964695e-02 1.21544870e-02 1.06987907e-02
      2.04393305e-02 9.98882502e-02 3.31510603e-01 3.31510603e-01
      3.31510603e-01 6.56352490e-02 1.29907867e-02 4.03892389e-03
      1.72096819e-01 2.73994893e-01 2.01114967e-01 1.72799855e-01
      1.70958757e-01 1.21728905e-01 9.25828293e-02 9.69612673e-02
      9.64166895e-02 2.00883150e-01 2.73994893e-01 2.07446188e-01
      8.63800123e-02 9.83435214e-02 8.63461718e-02 5.70611693e-02
      9.30038318e-02 7.07554370e-02 5.69318086e-02 8.93660411e-02
      1.77208006e-01 2.73994893e-01 2.73994893e-01 2.67151386e-01
      4.29402441e-02 3.77661474e-02 2.06529349e-02 1.03611693e-01
      1.25662223e-01 1.64543942e-01 2.07476407e-01 2.73994893e-01
      2.42845699e-01 1.25077784e-01 1.67384252e-01 9.37479287e-02
      1.62166849e-01 2.41524935e-01 1.77098677e-01 9.26363841e-02
      1.45532936e-01 1.14191517e-01 6.43055588e-02 9.65846106e-02
      1.06933177e-01 1.38062805e-01 2.41524935e-01 2.02745050e-01
      1.62550226e-01 1.73170373e-01 9.46075246e-02 2.41524935e-01
      2.41524935e-01 1.52940527e-01 1.68823659e-01 1.33114800e-01
      7.80933872e-02 8.56634602e-02 2.27405980e-01 1.82445601e-01
      1.06298350e-01 1.34177610e-01 1.53211609e-01 2.41524935e-01
      1.96981803e-01 1.18922956e-01 4.97380905e-02 1.16135836e-01
      1.15685850e-01 2.41524935e-01 2.41524935e-01 1.87729329e-01
      2.77033839e-02 5.98474108e-02 9.07034352e-02 1.23564780e-01
      1.72943100e-01 1.36157960e-01 3.33193690e-01 3.17898035e-01
      5.25252707e-02 1.29445400e-02 7.23411655e-03 7.86891859e-03
      1.98702216e-02 6.26379400e-02 7.81936571e-02 1.80307522e-01
      4.00870889e-02 1.47429993e-02 1.35972947e-01 1.10587820e-01
      1.22707963e-01 4.62021902e-02 1.47964478e-01 3.33193690e-01
      3.33193690e-01 3.33193690e-01 6.73160553e-02 3.01490612e-02
